nep4 3 Ga N C 
cutoff 8 4 416 50
n_max 12 8
basis_size 12 12
l_max 4 2 0
ANN 60 0
 -1.7460037e+00
  4.0120399e-01
 -1.4836837e-01
  2.7938209e+00
  4.2646271e-01
  1.1873387e+00
 -4.4422308e-01
  2.3508006e-01
  8.5926497e-01
 -9.6509241e-02
  2.7108321e+00
 -5.4349635e-02
 -5.9166110e-01
  9.8692887e-03
 -1.4456552e-01
 -1.7260648e-02
  1.2552160e+00
 -2.2486840e-01
  2.6803535e-01
 -6.6292417e-01
 -7.6648533e-01
 -5.9115022e-01
 -1.6049063e-02
 -5.4942060e-01
 -3.6240789e-01
  4.2751942e-02
  1.6371170e-01
 -2.5725278e-01
  4.0140289e-01
 -3.1852153e-01
  4.6586845e-02
 -1.0294070e-01
 -1.2458153e-01
 -6.0362601e-01
  3.4793394e+00
 -1.7416847e-01
 -6.1361760e-01
  2.8121501e-02
 -4.6296068e-02
  2.8990254e-01
 -1.8586657e-03
  5.6680226e-01
  1.3303013e+00
 -4.7609389e-02
 -1.5705629e-01
  1.1221898e-02
 -4.0845969e-01
 -1.4720066e-01
 -4.5054933e-01
  3.4230018e-01
 -6.6241801e-02
 -1.4835025e+00
  2.5305187e-02
  1.9106981e-01
 -1.0430056e-01
  1.5534854e-01
 -1.5014997e-02
  2.3214182e-01
 -4.3155861e-01
 -1.2632926e-02
 -1.0524541e+00
  2.0155520e+00
 -1.4232665e+00
  4.0259945e-01
  1.0029218e+00
 -3.2593083e-01
 -1.3132633e+00
 -8.5255027e-01
 -5.1525265e-01
  8.3171494e-02
 -7.4658757e-01
 -4.8277056e-01
 -6.0752470e-02
 -2.5016704e+00
 -3.1556803e-01
 -1.9557364e-01
 -3.4878695e-01
  2.6215380e-01
  1.3812413e+00
 -3.9825645e-01
  4.1868970e-01
  1.6994438e-01
 -4.2915577e-01
 -5.2325433e-01
  4.6414241e-01
  3.6842555e-01
  2.3635183e-01
  3.5761681e-01
 -4.9005181e-01
 -5.1965648e-01
  2.4916940e+00
 -1.2547293e+00
  1.2327063e+00
 -7.7477419e-01
 -7.1503621e-01
 -1.0011923e+00
  1.3901950e-01
  2.3894045e+00
  1.7160234e+00
 -1.9351898e+00
  2.4466766e-01
 -5.6400631e-02
  2.5029606e-01
  6.0011078e-02
  4.8980603e-01
 -1.2912488e+00
 -4.5844814e-01
 -2.4517837e+00
 -5.8048993e-01
 -9.6842863e-02
  1.7596629e-01
  5.4371154e-01
 -4.3581492e-01
 -4.2202297e-01
  5.0177850e-02
 -5.1572967e-01
 -4.8981661e-01
  2.3584204e+00
  3.8086555e+00
 -2.8838721e-01
 -3.5066408e-01
  1.2605826e+00
  7.1714717e-01
  3.4043732e-01
 -4.7760475e-01
 -3.3555068e-02
 -3.6365545e-01
  4.0976861e-01
 -1.2849138e+00
  1.3004632e+00
 -3.9041013e-02
 -6.9129467e-01
  1.3380123e+00
  1.4148849e-01
 -1.8527764e-01
 -2.3556426e-01
  1.2785715e-02
  5.5875617e-01
  2.8433442e-01
 -5.3095645e-01
 -2.7116093e-01
 -1.1484195e-01
 -8.2990348e-01
  3.2184753e-01
  1.5610771e-01
  1.7792003e-01
 -3.1473768e-01
  1.5293221e-01
  9.4289042e-02
  2.0780057e-01
 -8.3068168e-01
  3.3391595e-01
  4.4682422e-03
  1.4329450e-01
 -7.4240834e-02
 -7.9892412e-02
  1.3300425e-01
 -2.1158328e+00
  2.3510532e-02
 -1.3696091e+00
 -5.4228991e-02
 -6.1753738e-01
 -4.8730526e-02
 -1.0889202e+00
  1.6882147e-01
  8.4742486e-01
  3.0363167e-02
  1.8612407e-01
  2.6134109e-01
  3.6071098e-01
  2.7631480e-01
  1.2588146e-01
  1.3955641e-01
 -3.0482721e-01
 -8.7816453e-01
  2.3338618e+00
 -1.8883447e-01
  2.2736169e-01
 -6.4753795e-01
 -2.1425111e+00
 -3.5760589e+00
  1.9559858e+00
  8.3028547e-02
 -3.3001740e+00
  1.7301158e+00
  1.4100587e+00
  6.9997060e-01
  1.9078334e-01
  2.6672083e-01
 -2.6038894e-01
 -7.0308727e-01
  1.1958663e-01
 -1.2183433e-01
 -9.5178805e-02
  1.0361247e-03
 -1.8797180e-02
  3.8364685e+00
 -4.4662482e-01
  2.0210268e-01
  5.4529542e-01
  6.9352657e-02
  2.4471492e-02
  3.3460427e-02
 -1.1139364e-02
 -8.2314211e-01
  4.3406618e-01
  7.6925898e-01
 -7.5784516e-01
 -6.3774043e-01
  3.6020902e-01
 -8.1342138e-02
  5.3723669e-01
  1.3472702e-01
  2.1514189e+00
 -6.2496144e-01
 -6.3065654e-01
  3.0749817e+00
  2.6134510e+00
 -3.2240048e-02
  2.8204627e+00
  1.4036269e-01
 -1.3814689e-01
 -1.1066338e+00
  7.8496253e-01
  1.9864394e-01
 -1.2681574e+00
  3.7195015e-01
  5.1205331e-01
  5.3361917e-01
 -3.2546833e+00
 -4.1795239e-01
 -4.2339498e-01
  1.0759476e+00
 -8.9145499e-01
 -6.7132771e-01
 -1.1637418e+00
 -2.5565453e+00
 -2.2711942e+00
  2.3134584e+00
  8.7982172e-01
 -3.9633688e-01
 -7.1135300e-01
  1.2550688e+00
  6.3569576e-01
  3.4191713e-01
 -2.1153203e-01
 -2.8542066e-01
 -1.6293637e-02
 -1.9441270e+00
  1.8228145e-01
  1.7929047e-03
  9.2110515e-01
  2.5614694e-01
 -1.5021684e+00
  4.5454517e-02
  1.9747330e-01
 -8.7147273e-02
 -1.1859528e+00
  5.1587391e-01
 -1.2963115e+00
 -1.3368615e+00
 -1.4678764e-01
  1.3405696e-02
  7.3357254e-01
  1.3345742e+00
  1.6257976e-01
 -7.5698936e-01
 -5.8854347e-01
 -9.1558820e-01
 -4.6574751e-01
 -8.1661507e-02
  1.0918703e-01
  1.1261158e+00
 -1.1977992e+00
  6.8167776e-01
 -4.8788723e-02
 -5.6933343e-01
  2.0444250e+00
  2.8293982e+00
 -4.2140359e-01
 -7.9129690e-01
 -5.8422774e-02
 -5.0735140e-01
 -1.9292802e-01
  8.8451648e-01
  6.2824309e-02
 -1.4615563e+00
  5.1794326e-01
  2.7448735e-01
 -7.7250868e-01
  7.8034258e-01
  8.1871313e-01
  2.4499278e-01
 -1.6027361e-02
  1.3570908e-01
  1.5429118e+00
  9.6060179e-02
  1.4053831e+00
 -9.8930144e-01
 -1.5569106e-01
 -3.5608783e-01
  2.1878998e+00
 -4.9979249e-01
 -5.4596382e-01
  8.3007842e-02
 -2.2207998e-01
 -2.7575809e-01
  1.2063544e-01
  2.7243413e-02
 -3.9446437e-01
  7.6513059e-02
  8.6612687e-02
 -6.3243425e-01
  7.2294384e-02
  4.3526173e+00
 -5.3579932e-01
  1.8526456e-01
  7.8621536e-01
  1.4287134e-01
  9.2954800e-02
  4.2710912e-01
 -3.1941049e-02
 -2.3672380e-01
  1.0338249e+00
 -1.4616531e+00
  2.7407410e+00
 -2.5336125e-01
  2.6028436e-01
 -7.6660866e-01
 -3.6559567e-01
 -4.6561891e-01
  1.1209480e-01
 -1.7577642e+00
 -8.0541778e-01
 -3.6499196e-01
 -1.2165780e-01
  6.8753846e-02
 -1.0410640e-01
 -3.2083593e-02
  1.3791262e-01
  1.8984056e+00
  3.0403560e-01
 -1.0017758e-01
 -2.2583063e-01
  4.6256763e-01
  9.4534135e-01
 -3.2229908e-02
  1.3330592e-01
  6.3846499e-02
  1.0100387e-01
  4.6416521e-02
  2.3096868e-01
 -8.1439354e-02
  4.4616324e-01
 -1.6933624e-01
 -2.1783704e-02
 -3.4145094e-02
 -4.6573529e-01
  2.1318660e+00
 -1.1676255e+00
 -1.2846518e-01
  1.4619498e-01
 -1.1505222e+00
  7.1267806e-02
  8.5912652e-02
 -6.5359995e-02
 -4.3205932e-01
 -1.4393678e-01
  2.2080733e-01
 -1.7703308e+00
 -7.6967709e-02
 -5.1624751e-01
 -1.6179661e-01
  3.7272593e-01
 -1.9043484e-01
  7.4018633e-01
  1.4168009e-01
 -5.0679439e-01
 -2.6223817e-01
 -2.4889037e-02
  2.4794967e+00
 -4.1807675e-01
  1.7585557e-02
  4.1701190e-02
 -5.3226340e-01
 -3.9764416e-01
 -1.9265823e-01
 -1.5023921e+00
  5.3444976e-01
  3.3527443e-01
  7.2883755e-02
  2.2161596e-01
 -1.7972252e+00
 -4.3990386e-01
 -1.2709257e-01
 -6.6138583e-01
  1.0626596e+00
  1.0567141e+00
 -5.7308900e-01
 -7.9594702e-01
 -4.2102414e-01
 -2.2032203e-02
  5.2793378e-01
 -4.9491595e-03
  4.1245419e-01
  2.1775997e-01
  2.0169130e-01
 -3.7969120e-03
  1.0409398e+00
 -7.7498697e-02
 -3.8851567e-02
 -1.7306150e-01
  6.8848245e-02
 -3.9714434e+00
 -1.9160900e+00
  4.3619394e-01
  6.5858239e-01
  3.1690663e-01
  6.6421580e-01
 -8.2525408e-01
  2.5138702e+00
  1.9110431e-01
 -2.5979403e-01
  4.1496187e-01
 -5.3639832e+00
  3.5465869e-01
  2.7242023e-02
 -1.2136256e+00
  2.7435783e-01
  1.3179505e+00
  2.2381426e-01
  4.9983062e-02
 -3.2505292e-01
  9.1566250e-02
  7.1753937e-01
  2.6249170e-01
  6.6345721e-01
  2.6200628e-01
  6.4471519e-01
 -8.4314078e-01
  3.1876642e-01
 -6.5323436e-01
  2.5188241e-02
  1.6469637e-01
  2.5195792e-01
  3.7551394e-01
  4.0350932e-01
 -1.3761338e+00
 -3.0087498e-01
 -3.2326560e-02
 -9.5972367e-02
  4.3463875e-02
  7.8204715e-01
 -2.7242020e-01
  3.6378390e-01
 -9.6324489e-02
 -1.8094051e-01
  1.9460581e-01
  1.6825077e-01
  3.4844801e-02
 -1.5675832e-01
  1.7076489e-01
  7.1638095e-01
 -2.4855441e-01
 -1.5410045e-01
  1.7979116e+00
 -4.7997329e-01
  6.0734581e-02
 -1.9115456e+00
  4.4306520e-01
  4.7355810e-01
 -3.6491707e-01
  5.0995749e-01
 -6.1765808e-01
 -9.4987869e-01
 -7.1045589e-01
  1.5840803e-01
 -4.4434813e-01
  1.7721118e-01
 -1.3576264e-02
  1.3437207e-01
  1.8760312e+00
  2.8118165e+00
  1.4937961e+00
  2.3268612e-01
 -1.0461837e+00
 -1.6557944e+00
  1.2586592e-01
 -2.2227800e-02
  3.3248674e-02
  7.2377491e-01
  2.5451050e+00
 -3.1110110e-02
 -6.4051467e-01
 -4.3547016e-01
 -4.3830371e-01
  2.8852720e-02
 -8.5270971e-01
  1.5083929e+00
 -6.1097300e-01
  1.9795172e+00
  1.0437797e-01
  1.4009038e-01
 -1.3629432e+00
  1.5357010e-01
  7.2690964e-01
 -8.6397670e-02
 -6.1830610e-01
  6.4368531e-02
  8.6346185e-01
 -1.7370137e+00
 -3.9277810e-01
 -1.1571206e+00
  7.3827088e-01
 -4.8140574e-01
 -2.1290388e+00
 -8.2287572e-02
 -1.8599263e-01
  1.6611691e+00
  2.2073783e-01
  7.0536351e-01
  7.2333622e-01
 -7.6458432e-02
 -5.2082647e-02
 -2.3290591e-02
  2.2522403e-01
 -2.0339040e-01
  4.6563911e-01
  8.4778500e-01
 -4.4700548e-02
 -4.3534571e-01
 -4.8383209e-01
  7.7131081e-01
 -2.5238642e-01
  2.1097153e-01
 -3.0424926e-01
 -4.8839957e-02
 -1.9360009e-01
  1.4832537e+00
  4.6716124e-02
  3.8196507e+00
  1.2154178e-01
  9.8685913e-02
 -6.9627029e-01
  9.0514177e-01
  3.5928857e-01
  1.8922512e-01
 -5.4418319e-01
 -7.7827102e-01
 -4.4134134e-01
  1.4804493e+00
  2.9664038e-02
 -5.4537153e-01
 -2.1501055e-02
 -8.4177428e-01
 -7.3057652e-01
  8.3417988e-01
  2.9720420e-01
  2.1447315e+00
  5.5622435e-01
 -8.3068568e-01
  5.3270817e-02
 -5.3843174e+00
 -7.7866957e-02
  3.0354470e-01
  1.1255571e-01
 -2.6285777e+00
 -3.8554959e+00
  1.9353995e-01
  2.5557858e-01
  7.0794070e-01
 -3.4936833e-01
  1.3504629e-01
  1.3974854e+00
 -6.8690509e-01
  5.6426507e-01
  8.6043900e-01
 -4.2568799e-02
  8.1604922e-01
 -3.8196940e-02
 -1.1630618e-01
 -3.6520973e-01
 -2.0591615e-01
  4.6304274e-01
  2.5624390e+00
  3.2361019e+00
  6.6233808e-01
 -4.4200111e-02
  1.3793193e-01
 -5.9203917e-01
  4.3954122e-01
 -1.0429490e+00
 -1.2527041e-01
  4.7504462e-02
 -2.3952261e-01
  3.9039627e-01
  2.1738537e-01
  2.4723523e+00
  2.1816056e-02
  2.0328476e-01
  1.0044534e+00
 -2.4538989e-01
  3.5365887e+00
  8.9414334e-01
  2.4347122e+00
 -5.9925443e-01
 -4.0984634e-02
 -1.6153854e-01
  1.8123634e-01
  3.6111325e-02
  3.9436281e-01
 -3.2714337e-01
  1.3444778e-01
 -9.4269469e-02
 -9.2463613e-01
  6.3496727e-01
 -1.5616994e+00
 -1.8250356e+00
 -1.9096518e-01
  1.7321342e-01
  2.0731434e-01
  4.1833270e-01
  2.1777144e-02
  6.9980860e-01
 -6.4659849e-02
 -1.7661418e-01
  3.5775340e-01
 -2.0355117e-01
  4.1917226e-01
 -1.3284137e+00
 -4.6942082e-01
  3.2411498e-01
  3.5604045e-02
  1.8088488e-01
  3.1132992e-02
 -1.5351503e+00
  3.1968510e-01
  3.6290291e-01
  7.5711948e-01
 -5.9309292e-01
 -1.3586441e+00
  3.2058972e-01
 -6.1069000e-01
 -7.2335398e-01
  3.9768767e-01
 -2.8377512e-01
 -4.9236053e-01
  4.9955282e+00
  4.3263274e-01
 -2.4161956e-01
  1.4236923e+00
 -6.8365222e-01
  2.6746881e-01
 -1.1274599e+00
  6.1096206e-02
  1.2828848e+00
  2.3039711e+00
  4.1341382e-01
 -7.0298880e-01
  5.1379436e-01
 -6.6404212e-01
  3.7515652e-01
 -2.6196358e-01
  1.5302651e+00
  4.5701706e-01
  1.1608462e+00
 -3.6257005e+00
 -1.5430282e-01
 -1.4612322e+00
  7.3120773e-01
 -7.8292960e-01
 -2.4832818e-01
 -1.0641598e+00
  2.9963261e-01
 -1.5564873e+00
  5.0304823e+00
  2.1814401e+00
 -7.7289873e-01
  2.0692992e+00
 -2.7764482e-02
 -2.4564067e-01
 -1.4409317e+00
  9.6575573e-02
 -2.0657034e+00
 -4.8294356e-01
 -1.6319817e-02
 -3.4882271e-01
 -2.1451423e-02
 -3.0849072e-01
 -6.1842531e-01
  8.3905625e-01
  9.7142927e-02
  1.2852970e+00
  1.5352210e-01
 -4.5042186e+00
 -2.5146086e+00
  5.5855292e-01
 -2.1836931e-01
 -3.1633505e-01
 -8.4142977e-01
 -5.9357632e-02
  4.2098129e-01
  1.3948369e+00
  9.3642175e-01
 -7.3663628e-01
 -5.8288310e-02
  7.5507301e-01
  7.6100416e-02
 -4.9657887e-01
 -9.0443805e-02
  6.9178730e-01
 -2.4227504e-02
  8.1671631e-01
  1.9659495e-02
 -7.8619844e-01
  8.0022603e-02
 -4.9427983e-01
 -1.3803697e-01
  2.7815284e-02
  3.9095152e-02
 -5.8695960e-01
 -3.8820118e-02
 -1.4023836e-01
 -1.1377037e-01
 -2.2315340e-01
  5.1059175e-01
 -6.3529575e-01
  6.9033757e-02
 -1.0390331e-01
 -2.3420188e-01
 -1.4588791e-01
 -2.7690377e+00
 -6.7649491e-02
  2.7745089e-01
  7.0476192e-01
  1.0473769e+00
  1.1173141e+00
  1.1032754e-01
  2.1369588e-01
 -2.8658444e-02
 -2.6594940e-01
  1.9314955e-01
 -6.5364051e-01
  1.9495352e-01
 -2.9550722e-01
  2.3080327e-01
  6.7465943e-01
  1.8100420e-01
  9.0405963e-02
  2.8619468e-01
 -6.4659250e-01
 -5.7338876e-01
  1.4888417e+00
  1.3932547e-02
  2.1850071e+00
 -2.0848165e-01
  2.4478096e-01
  7.7064371e-01
 -7.3839599e-01
  7.5762429e+00
 -3.3536035e-01
  2.3740011e-01
 -3.5362503e-01
 -5.3335097e-02
 -1.6505344e+00
 -4.8942193e-01
  2.9476732e-01
 -1.1017898e+00
  4.5581454e-01
 -5.6054279e-02
 -1.2559363e+00
  8.9006625e-02
 -3.7608939e-01
 -2.4083398e-01
 -2.6501063e-03
 -1.8616933e-01
  1.6280327e+00
 -1.2801828e+00
  4.7882789e-01
  5.9606850e-01
 -3.5805333e+00
 -1.5231291e+00
 -4.8307738e-01
 -5.5753537e-02
  2.6890656e-01
  3.2540900e-01
  2.4551870e-01
  1.0580684e+00
  1.7596962e-01
 -1.3355721e+00
 -8.2270634e-01
 -1.2660180e-02
 -3.9957720e-01
  4.5529851e-01
 -7.9841328e-01
 -1.9126660e-01
 -8.4715164e-01
 -1.3332682e+00
 -2.0441891e-01
  1.6656607e+00
 -5.1845223e-01
  5.6666124e-01
 -6.7077911e-01
 -1.3890433e-01
  1.6173443e-01
  1.5244726e-02
 -4.3027940e-01
 -3.1530035e-01
  5.2052182e-01
 -2.1753718e-01
 -2.9996523e-01
 -3.8121334e-01
 -1.0862446e+00
  5.4550509e+00
  3.1641632e-01
 -3.1985363e-01
  8.4088457e-01
  8.4475255e-01
  1.0826267e+00
  1.2757261e+00
  2.8553101e-01
  1.2151824e+00
  2.8867328e+00
  1.2056348e+00
  4.0257783e-03
 -7.7000037e-02
 -3.1423983e-01
 -1.2979444e+00
  8.3044541e-01
 -8.3820909e-01
 -1.2228855e+00
 -5.0084037e-01
 -5.6453753e-01
 -5.6822747e-02
  1.7184517e-01
  4.6502081e-01
 -7.7856117e-01
 -1.6559533e+00
 -5.9259629e-01
 -4.6224731e-01
 -4.4746730e-01
 -3.4181860e-01
  2.3870170e-01
  7.0328611e-01
  1.9765995e+00
  4.4953384e+00
  2.8780451e-01
 -9.7536945e-01
  5.2141279e-01
 -9.0700842e-02
 -8.9213133e-01
  7.8232759e-01
 -9.9282658e-01
 -8.9553453e-02
 -4.5568040e-01
 -1.5553797e+00
  7.2965994e-02
 -9.3307745e-01
  3.8398942e-01
 -9.2389137e-01
  1.4994490e-01
  1.9823335e-01
  2.4578393e-01
  2.1914680e-01
  1.0673169e-01
  2.0586281e-01
  4.4975060e-01
  1.0001442e-01
 -3.4304622e-01
  1.6493064e-01
 -1.5423830e+00
 -1.4250733e+00
 -1.4381250e+00
 -6.0995173e-01
 -5.0395340e-01
  5.0480872e-01
 -3.9397839e-01
  2.2588509e-01
  2.6290861e-01
 -7.5609811e-02
 -2.1338935e+00
 -1.2629983e+00
  4.9180803e-01
  9.2131175e-02
  2.2215953e-01
  6.2242496e-01
 -2.4877036e-01
  1.0106143e+00
  1.1807433e+00
 -1.5959382e-01
  2.5778669e-01
 -3.2321748e-01
  1.3571047e-02
  8.5596001e-01
  2.8100832e+00
  2.5945678e-02
  3.4015718e-01
  1.2735728e+00
 -1.4340800e-01
 -9.9523222e-01
 -1.7549445e-01
 -8.6302209e-01
 -1.2890601e+00
 -3.5191768e-01
  2.8311377e+00
 -6.2260479e-01
 -1.6824256e-01
 -6.0856271e-01
 -1.0828165e+00
  3.3842736e-01
  1.7292084e-01
  2.9448857e+00
 -8.9503676e-02
  2.5438294e-01
  1.4004865e-01
  1.2545395e+00
  9.4848531e-01
  8.5034525e-01
 -1.5820110e+00
 -5.8527470e-01
 -5.5700684e-01
 -9.0678400e-01
  3.8671783e-01
  1.7156279e-01
  7.0225596e-02
  5.7652575e-01
 -1.4949191e-01
  1.5890056e-01
 -5.0318462e-01
  4.6548869e-02
  3.2399726e-01
  8.3564766e-02
  1.1101233e+00
  1.6811307e-01
  1.2165468e-01
 -1.6984254e-01
 -3.4035754e-01
 -4.9881220e-02
 -6.3498817e-02
  4.7486371e-01
 -6.2612921e-02
 -9.4436765e-01
  1.0939328e-01
 -2.0438796e-01
  2.3441951e+00
 -8.1442781e-02
  8.2112849e-02
  4.3560269e-01
 -2.1077165e-01
 -7.6844275e-02
 -1.3380376e-02
  4.8060492e-01
  7.2558600e-01
  1.2275133e+00
  2.2590356e-02
 -3.4141985e-01
 -4.5081544e+00
 -1.7222060e-01
  7.4745089e-01
 -1.0900575e+00
  2.5317007e-01
  3.2352814e-01
  9.0663582e-01
 -3.4427899e-01
  1.1674768e-02
 -8.7729752e-02
 -2.8272900e-01
  9.9435753e-01
 -4.3499744e-01
  4.1766483e-01
 -8.8806123e-01
  6.9519974e-02
  2.2662768e-01
 -2.1589171e-02
  1.0734456e-01
 -1.1706563e-01
 -8.2825553e-03
  1.1344199e-01
 -9.6593571e-01
  4.2044297e-02
 -4.2669496e-01
  7.6327985e-03
 -7.9484440e-02
  1.1880820e-02
  1.5341200e+00
  1.4272359e-02
 -3.8153918e+00
 -1.6980306e+00
  1.4575964e+00
 -7.6992112e-01
 -5.7263958e-01
 -1.2026130e+00
 -1.7966049e+00
  2.7594678e+00
  2.9090607e-01
  2.9950554e+00
  1.2379409e+00
 -1.9177411e+00
  9.5138592e-01
 -1.7949334e-01
  8.2449377e-01
 -6.6027451e-01
  3.1815310e+00
 -1.4883533e+00
 -1.6861600e+00
  4.4687051e-01
  1.0122589e+00
  1.5773400e+00
 -1.9781398e+00
  2.2632310e+00
  5.9524941e-01
 -1.2085329e+00
  3.0495840e-01
 -7.7528292e-01
 -2.8763899e-01
 -1.5868510e-01
 -2.3711565e+00
  6.6220391e-01
  1.7071980e+00
 -5.9573227e-01
  4.2461557e+00
 -4.1898489e-01
 -3.6896524e-01
  3.9952987e-01
 -1.0846499e+00
 -1.1804413e-01
  4.1564190e-01
  4.2014644e-01
 -6.2966222e-01
  2.4910325e-02
 -9.2652380e-01
 -1.7516634e+00
 -4.0036300e-01
 -1.4231489e+00
 -1.2142131e+00
  1.4923296e-02
 -2.9538024e-02
  8.7019004e-02
  2.1873829e-01
  6.3880142e-03
  1.9200437e-01
 -8.5683560e-01
 -4.9664605e-01
 -6.2830202e-02
  7.7388957e-02
 -1.5365969e-01
  3.4865358e-01
 -1.4728105e+00
 -4.3165764e-01
  7.1629591e-02
 -7.1269917e-01
 -1.8279473e+00
 -9.1761552e-02
  1.3105267e-01
 -5.1968527e-01
  1.1849103e-01
 -7.6013994e-01
 -2.5727144e-01
 -5.3771462e-02
  2.4410339e-02
  7.4961954e-01
  5.4399830e-01
  1.8491714e-01
  2.6772738e-01
 -9.2995986e-02
 -1.0000949e+00
  1.6078919e-02
  5.7381105e-01
  3.2092899e-01
  2.3348434e-02
  3.6979437e+00
 -1.4953880e+00
  3.3358362e-01
  1.1313736e-01
 -6.2405616e-01
  7.9093883e-03
 -3.0784628e-01
  9.4350889e-02
 -4.6711307e-02
  3.0381408e-02
  2.0759456e-02
 -6.1025131e-01
 -6.0155392e-01
 -2.1037653e-01
 -2.9228386e-01
  6.3105667e-01
 -1.4939870e-01
 -5.6961805e-01
  1.3149392e-02
  4.3357095e-01
  1.0200509e-02
 -5.0353539e-01
 -6.2531602e-01
 -3.5788696e-02
 -8.7452583e-02
 -2.0857201e+00
 -1.9438937e+00
 -1.9476047e-01
  3.5455126e-01
 -4.9007844e-02
 -1.5584859e+00
 -1.4388710e-01
  2.7017921e-01
 -3.6464757e-01
 -3.0803713e-01
  7.8911984e-01
 -1.7251722e+00
 -1.4622340e+00
 -6.1805896e-02
  1.9415170e-01
  1.4487530e+00
  1.9293043e-01
 -1.7344867e+00
  1.9271310e-01
  2.2524899e-01
  1.2814651e+00
  6.0570800e-01
 -8.5046637e-01
  1.6880419e+00
 -5.4053515e-01
  8.9600885e-01
  1.8998319e-01
  3.7535942e-01
 -1.1815367e-01
  2.6321137e+00
  7.3835380e-02
  2.3909421e+00
 -7.1791679e-02
 -2.7568245e+00
  6.1563736e-01
 -5.9382701e-01
  5.0845563e-01
  1.4091432e-01
  9.7017968e-03
 -1.3880084e+00
 -4.2369589e-01
  7.4398674e-02
  6.3279212e-02
 -1.0825314e-02
 -2.5875328e+00
 -5.5726580e-02
  8.8913903e-02
  7.7159971e-02
 -1.1641438e-01
  1.8383889e-02
 -1.4818131e+00
  1.7833213e+00
 -1.6343427e-01
  2.4210909e-02
 -6.9919759e-01
  2.7045217e-01
  6.6309303e-02
 -4.7911564e-01
  3.8436908e-01
 -3.9161006e-01
 -1.2316880e+00
 -1.3099703e-01
 -8.6520351e-02
  2.8862193e-01
 -1.2531456e-01
  1.6526029e+00
  4.1880250e-02
  2.6234779e-01
 -1.2010933e+00
  2.5320406e+00
 -2.7864739e-01
 -1.6102862e+00
 -1.8301556e-01
  1.0756719e-02
  5.6013966e-01
 -1.2771883e+00
 -6.0470796e-01
  1.4994203e-01
  9.8301995e-01
  3.9864710e-01
  3.5084158e-01
  2.2965842e-01
  7.5129843e-01
  5.3031720e-02
 -1.8352504e-01
  4.0136896e-02
  8.6274154e-02
 -1.0212643e-01
  2.6502931e-01
  2.2484680e-01
  2.5024326e+00
  2.8639901e-01
  2.9995171e-02
  5.6002593e-01
  4.5031223e-01
 -2.7524012e-01
  1.1099234e+00
 -1.2166905e-01
  6.6743857e-01
  6.3569868e-01
 -2.6079462e+00
 -4.2576522e-02
  1.5606343e+00
  4.0727362e-01
 -1.0144500e-01
  1.7398894e+00
  2.1992326e+00
  1.9084105e-01
  1.7547596e-01
 -2.5159806e-01
 -1.0838617e-01
  1.0618564e+00
 -6.2835604e-01
  5.8836973e-01
 -9.5594421e-02
  3.8654644e-02
  7.3136127e-01
  1.1371324e+00
  1.1718054e+00
 -2.6348593e+00
 -1.0156045e-01
 -4.2383587e-01
  4.7949124e-02
 -1.2006094e+00
 -2.3067613e+00
  1.1550795e-01
 -3.1532010e-01
 -2.4032137e-01
  2.1816976e-02
 -9.0483254e-01
 -2.6667041e-01
 -1.0512196e-01
  1.0138953e+00
  1.1487813e+00
 -1.9530456e-01
 -7.4317855e-01
  1.8246894e+00
  5.3357375e-01
 -1.9134129e+00
 -1.2449440e-01
 -4.9971697e-01
  5.0881195e-01
 -1.3141537e-02
  3.2536960e-01
 -3.1092530e-02
  8.6669903e-03
 -8.1709944e-02
 -4.4505078e-01
 -2.4235666e-01
  1.5702860e+00
 -3.0742744e-02
  5.2257329e-01
  9.0880370e-01
  2.0029241e-01
  4.0596277e-03
 -1.9965676e+00
  1.2282872e-01
  1.0851289e+00
  1.4144838e+00
 -3.0248868e-01
 -1.4715798e-01
 -1.4381559e+00
  4.3771559e-01
 -1.2790570e-01
 -1.5202910e-01
  6.4677978e-01
  1.2027186e-01
 -1.0023695e+00
  2.8271016e-01
  7.4222994e-01
 -3.6845914e-01
  1.7956635e-01
  3.8165924e-01
  1.0129960e-02
  2.3069011e-01
 -5.6242216e-01
  2.9665429e-02
  1.2576205e-01
  8.5689789e-01
 -1.1957514e-01
  6.4212132e-01
 -1.2904943e+00
 -9.9174303e-01
 -1.6457776e-02
 -1.3613960e-01
 -1.7068608e+00
 -4.4607159e-01
 -4.2297435e-01
 -1.0707340e+00
 -2.1261432e+00
  1.6304864e-01
 -3.2780901e-01
  1.1750548e+00
 -6.0198283e-01
  2.9906018e-02
 -1.3181445e-01
 -2.6595521e-01
  2.9327801e-01
 -3.1079111e-01
  3.0080315e-01
 -3.2977805e-01
  9.5189609e-02
  2.8988257e-01
  3.3929245e+00
  1.2987561e+00
  3.2244879e-01
  3.2790834e-01
  1.3257958e-01
  7.0698902e-02
 -1.4115021e-01
  3.4620035e+00
  3.6768854e-01
  4.1254422e-01
  9.4413482e-02
 -1.2088208e-01
  4.5103279e-01
 -2.9630903e-02
 -8.7628858e-03
 -2.1796237e-01
 -2.0127025e-01
 -5.1799500e-01
 -2.5139296e-01
 -8.6774126e-02
 -5.0035101e-01
  9.8764651e-02
  2.8279023e-02
 -3.7775285e+00
 -8.2988210e-02
 -1.4475063e+00
  4.5484281e-03
 -1.0472821e-01
 -4.6204752e-01
  1.4875348e-01
 -7.3592722e-01
 -3.3626859e+00
  8.3735891e-02
 -1.9005646e-01
  5.5697780e-02
  2.3155634e+00
  1.8242958e+00
 -1.4360026e-01
  2.5120213e+00
  5.9663361e-01
 -6.7018396e-01
 -4.7478512e-01
  1.5424839e+00
  9.3721485e-01
  2.9498133e-01
 -8.5333955e-01
 -4.6425253e-01
 -2.2130398e-01
 -2.0289559e+00
 -2.5194764e-02
  1.1184745e-01
  1.7191036e-01
  3.1943747e-01
 -1.6931804e-01
  4.3136939e-01
  6.0261649e-01
 -9.1415513e-01
 -2.0677413e-01
  1.0934854e-01
 -8.0050558e-02
 -5.8122408e-01
 -2.1155925e-01
  4.2457694e-01
  7.8641319e-01
 -6.0471171e-01
 -1.5850754e-01
  3.0620775e-01
 -2.2571658e-01
  3.4356717e-02
 -7.2578222e-01
  1.4420855e-01
 -2.3932573e-01
 -3.1422061e-01
 -6.3480073e-01
  3.6197528e-02
  3.9750683e-01
 -1.3418252e+00
  1.1281792e+00
  4.6881121e-01
 -1.1124236e-01
 -3.3249602e-01
  2.9853499e-01
  1.1496724e+00
  9.4091527e-02
 -3.3910388e-01
 -1.7593843e-01
 -1.7751474e+00
 -3.4694403e-01
 -2.5136271e-02
  1.3870459e+00
 -1.3614127e-01
 -6.2168634e-01
 -4.1294798e-02
  1.5325906e+00
 -8.6674824e-02
  1.6114039e+00
  5.4084588e-02
  4.0619177e-01
  1.1662164e-01
 -3.9166579e-01
 -1.5859207e+00
  1.2823925e+00
  2.4469016e+00
 -1.3054070e-01
  1.0175177e+00
 -8.6688036e-01
  4.3498820e-01
  1.6634699e+00
 -6.7945346e-02
  1.3665596e-01
  8.7889373e-01
 -1.1570050e+00
  1.2821300e+00
 -5.8747984e-02
 -1.1402000e+00
  7.3540986e-01
 -1.5085777e+00
 -7.7005023e-01
 -1.8904703e+00
 -1.3851402e+00
 -1.1156931e+00
  8.1207031e-01
  9.2592992e-02
 -4.0500483e-01
 -1.3944002e+00
 -1.9267358e+00
  4.7820583e-02
 -1.0178059e+00
 -1.0892793e+00
 -4.4567519e-01
  6.1269529e-02
  1.2156907e-01
  5.1269650e-01
 -5.0658876e-01
 -3.8160309e-01
 -9.9563442e-02
  9.6106517e-01
  7.1598023e-02
 -4.2265788e-02
 -3.9341772e-01
 -1.8726753e-01
 -9.1578352e-01
  6.1199003e-01
 -5.0087959e-01
  1.9076365e+00
  6.9600236e-01
 -9.2023514e-02
 -1.6546588e-01
  1.0450078e+00
  9.2261189e-01
  1.9437355e+00
  7.5740272e-01
 -7.1839936e-02
  2.7387261e-01
  1.3665044e-01
 -1.9943884e-03
 -3.5322476e-02
 -4.1789633e-01
 -2.4539231e-01
 -7.3785132e-01
  3.8514000e-01
 -7.1959749e-02
 -5.8915156e-01
  1.5872388e+00
  3.9824226e-01
  2.6243943e-01
 -7.1702980e-02
 -6.4621970e-02
 -8.4535189e-02
  2.3732269e-01
  6.5866530e-01
  2.3474307e-01
  1.7514460e-01
  1.0773146e+00
  1.4510633e+00
  4.0003079e-01
 -2.6033180e-02
  4.5378196e-01
 -1.8472983e-01
  8.1662887e-01
 -6.2021804e-01
  4.1756502e-01
  2.4397196e-01
  1.9247730e-01
 -3.8891074e-01
 -5.4397553e-01
  7.6369363e-01
  2.5961637e-01
  7.0389681e-02
  1.1478855e-01
 -1.1588767e-01
 -7.7108003e-02
 -6.6467899e-01
 -2.6915446e-02
 -4.1462493e-01
  1.3826722e-01
 -1.1181968e-01
 -2.3307437e-01
  1.9950768e-01
  9.2367604e-02
 -6.9284514e-02
  3.5147661e-01
 -2.3960108e-01
  1.1184564e-03
 -2.7820906e-01
  4.0966142e-02
 -1.1403339e-01
 -2.2132101e-03
 -8.5762456e-02
 -1.2815157e+00
  1.6787134e+00
  6.9519505e-02
 -6.7388648e-01
 -4.4600062e+00
 -5.2007449e-01
  4.0825680e-02
  2.0096290e+00
  3.5579759e-01
  1.2098224e+00
  5.2842432e-01
 -2.7231634e+00
 -3.7189839e+00
 -1.7387054e+00
 -1.2278697e-01
 -2.0323382e-01
 -5.1506668e-01
  2.0599198e-01
  7.5445481e-02
  2.6212698e-01
  7.5047500e-02
 -2.1175776e-02
 -1.1713808e+00
  1.8590090e-01
 -3.4205776e-02
 -3.8987973e-01
 -2.1054694e-01
  1.9852743e-01
 -1.1854762e-01
  3.5077202e-01
  4.7808078e-01
 -9.8280078e-01
 -5.6113392e-01
 -7.5335786e-02
 -2.1083958e+00
  2.1773651e+00
 -9.8532951e-01
 -8.7409180e-01
  4.2977491e-01
  5.7148260e-01
  2.8303412e-01
  5.7505928e-02
 -1.2955030e+00
  4.4602424e-01
  2.4151839e-02
  9.1910887e-01
 -1.2816051e+00
 -4.1495916e-02
 -3.0459008e-01
 -3.8669829e+00
 -3.3417913e-01
  8.2860905e-01
  3.6341299e-03
 -9.0543258e-01
 -1.7873511e+00
  2.5317314e-01
 -3.8851553e-01
 -4.1242918e-01
  8.7933891e-02
 -4.5902739e+00
  7.8382456e-01
 -4.4788617e-01
  3.5252780e-01
  2.0270914e-02
 -3.6743879e-01
  9.8233394e-02
 -3.2530389e+00
  4.2096284e-01
 -5.3046513e-01
  7.8127438e-01
 -4.3159994e-01
  5.5580046e-02
 -1.1826891e-01
  4.4867527e-02
  2.9809380e+00
  7.3992920e-01
 -1.8858941e-01
  1.0659459e+00
 -1.2945282e-01
  1.8675452e-01
 -1.3070391e-01
  5.8272368e-01
 -1.0529594e+00
  3.3532649e-01
  4.3463807e+00
  1.2436420e-01
  7.4392837e-01
  2.9798433e-01
  1.1396036e-01
  2.6867896e-01
 -4.9041638e+00
  1.1436974e-01
  7.5046539e-02
 -9.7420436e-01
 -1.2674126e-02
  7.8240894e-03
 -7.5330958e-02
  8.2376152e-03
 -8.6863273e-01
 -3.0013180e-01
 -4.2528771e-03
 -5.5157477e-01
 -6.6080935e-02
  2.1677524e-02
 -6.2877721e-01
 -5.8645725e-01
 -1.1295304e-01
  1.7658499e-01
 -2.3680083e-01
  9.6846914e-01
  1.5231128e-01
 -9.4109766e-02
 -1.2162583e+00
  9.9953875e-02
 -2.1297829e-01
  1.2774785e-01
  2.0086206e-01
  3.5689626e+00
  4.0792581e-01
 -1.6591558e+00
  1.0193988e+00
  1.7364786e+00
  8.7102307e-03
 -6.1224514e-01
 -3.9276081e-01
  1.9233862e+00
 -9.8521167e-01
 -9.0481478e-01
  1.5451302e-01
  1.9123828e+00
  2.2644794e+00
  1.2588919e+00
 -1.0694249e+00
  4.6791811e-02
 -1.3159587e+00
 -1.0554241e+00
 -6.6559321e-01
 -9.1510731e-01
 -1.5299832e+00
  5.7429790e-01
  2.4947972e+00
 -8.9294970e-01
 -7.9330236e-01
 -1.9878434e+00
  1.6596966e+00
  1.5624387e+00
 -1.6586237e+00
  1.3023145e-01
  9.0846586e-01
 -8.0900455e-01
  2.3633301e-01
  1.9146543e+00
  8.4974903e-01
  2.6749105e+00
  1.7714764e+00
 -6.5469337e-01
 -3.6364117e+00
  4.7265905e-01
  1.2915770e+00
 -4.7887687e-02
  5.1109767e+00
  9.2011738e-01
  2.6346791e+00
  7.4254525e-01
  1.4930061e-01
 -9.3590373e-01
 -8.0436647e-01
 -5.1944900e-01
  6.4118987e-01
 -8.1633627e-01
 -5.5684749e-02
  3.0165105e+00
  1.0298812e-01
  2.3388730e-01
 -1.0773635e+00
  6.5284234e-01
 -1.0500827e+00
 -1.2151693e+00
  1.0314124e-01
 -4.6216062e-01
 -2.5859592e+00
  3.1899729e-01
 -5.9039589e-02
 -1.7885402e-01
 -1.5204216e-02
  1.6527808e-01
 -1.4638830e+00
 -3.5358939e-01
  2.0709595e-01
  9.7111577e-01
  1.7556589e+00
  1.0580431e+00
 -1.2705986e+00
 -5.3291947e-01
  1.3310887e+00
  1.2145405e+00
  3.0615893e-01
 -8.1706363e-01
  6.2300491e-01
 -3.0723292e-01
  1.2468328e+00
  1.7670730e-01
  7.7144481e-02
 -1.6195642e-02
  2.2764158e-01
  2.1803737e-02
  4.0133929e-01
 -8.0175132e-02
 -3.2010245e-01
 -1.4021508e-01
  7.3335773e-01
  3.7151414e-01
 -3.5158947e-02
  1.3222869e-01
  7.1539277e-01
 -5.5258099e-02
 -8.0716088e-02
 -7.9344618e-01
 -2.3156722e+00
 -2.5949772e-02
 -3.5173378e+00
 -7.1129568e-02
  5.7883197e-01
  2.1978346e-01
 -2.2199497e-01
 -2.9510692e-01
 -2.2771885e+00
  3.1055811e-01
  9.4172180e-02
 -3.2176527e-01
 -2.5053284e-01
  1.7484295e-01
  1.3074085e+00
 -5.5333300e+00
 -1.1495763e-01
  6.6972293e-02
  4.6664274e-01
  2.8222945e-01
 -2.5798374e-01
 -5.3599840e-01
 -9.5347216e-04
  1.5879095e-01
  6.0747325e-01
 -3.6109127e-02
  7.1501184e-01
  1.3208601e-02
 -1.0452737e-02
 -7.6900817e-02
 -3.2539241e+00
 -4.5385647e-01
  1.7640623e-01
 -1.5533912e-01
  1.2989576e+00
  4.1857368e-01
 -8.0142848e-02
  2.6411733e-01
  5.2196825e-01
  2.5575705e+00
  4.1211050e-02
 -1.1715069e-01
 -3.1365865e-01
 -5.6727040e-01
  1.1724880e-01
  1.2663901e+00
 -1.7023145e+00
  1.3609980e-01
  5.0374664e-02
  6.0553961e-02
 -8.7105304e-01
  8.9330053e-01
 -1.9961698e-01
  2.6143759e-01
 -5.6342882e-01
  2.8385323e-01
 -6.7916697e-01
 -4.6760342e-01
  3.5464987e-01
  2.9813361e-01
  7.8601085e-02
 -2.1380022e-01
 -9.9313712e-01
  1.8552729e+00
 -1.5392755e+00
  5.9456962e-01
  5.7864612e-01
 -7.1538168e-01
  2.7385883e+00
  2.3103066e-01
  9.7998321e-02
  3.3786854e-01
  8.0049872e-01
  4.6648368e-01
  8.0022556e-01
  9.2072827e-01
 -2.4279216e-01
  2.4907391e+00
 -4.0075880e-02
 -4.4839790e-01
 -7.8701895e-01
  1.8305454e-01
  2.5394723e-01
  1.4019563e+00
  7.5797606e-01
  1.2088468e+00
  1.1445785e+00
  8.3485228e-01
  2.7890354e-01
  3.4029152e+00
 -1.7354789e+00
  1.0163703e+00
 -2.2990384e+00
 -2.4156085e-01
 -4.4198542e+00
 -1.0728899e+00
  1.1467974e+00
 -2.8924048e+00
 -1.1820294e+00
 -6.5773904e-02
  7.0952725e-01
  1.8094227e+00
  2.7375841e-01
  9.5473641e-01
 -5.5005688e-02
  2.0380900e+00
  2.6376302e+00
 -1.7631395e+00
  1.8669384e+00
  4.1536865e-01
 -9.9269384e-01
  7.8990012e-01
  1.5657319e+00
 -6.5751886e-01
  6.6937141e-02
 -3.4275963e+00
 -1.4518362e-01
  1.2636406e+00
  1.7122369e-01
  1.2584360e+00
  2.6253161e+00
  2.1253042e-01
  3.7094476e+00
  3.2264709e-01
  2.1775983e-01
 -2.2235334e-01
  5.4182047e-01
  1.5259449e+00
  1.2516481e+00
 -1.4841713e+00
 -2.9845586e-01
 -3.6323854e-01
 -2.2226098e-01
  3.9570716e-01
  3.0337140e-01
 -2.0850616e+00
 -5.5580689e-03
 -7.0415664e-01
  3.9153537e-01
  1.1789413e-01
  1.9713241e-01
 -4.5813674e-01
  1.6423719e+00
  8.5940532e-02
 -4.3790951e-01
  3.8006139e-01
 -2.0259035e-01
  2.8290693e-02
 -1.0119890e+00
  2.4902309e-01
 -1.2206460e+00
  2.7584493e-01
 -1.0363637e-01
  2.6526955e-01
  1.8037842e-01
  6.1579667e-02
 -1.3873490e+00
  2.9422718e-01
 -4.4307694e+00
 -1.5227045e-01
 -3.6391521e-01
  7.0553169e-02
 -1.3349330e-01
  7.8361169e-02
 -4.8446003e-02
 -7.2094746e-02
  1.7700876e-01
  5.9188831e-01
  2.1835296e+00
  1.7464662e-01
 -4.7560257e-01
 -1.4031947e-01
 -1.3006972e-01
 -9.8243669e-02
  1.6552517e+00
  1.3530169e-01
 -1.4453304e-01
  1.3780417e+00
  2.1101061e-01
 -2.8732756e-01
 -4.8972598e-01
  1.9817658e-01
 -2.1976416e+00
  5.9651178e-01
  2.4784212e-01
  8.5435398e-02
 -6.3643730e-01
  4.3434787e-01
 -6.0606938e-02
 -1.0145077e+00
  1.2671589e+00
  5.4016536e-01
  3.2354088e+00
  1.6151793e+00
  1.0257614e+00
 -1.0785530e-01
  1.6248890e+00
 -1.8723850e+00
  8.9529330e-01
 -1.3428843e+00
 -1.3051139e+00
 -3.8787527e+00
  2.3040423e-01
 -2.7305025e-01
 -4.4771874e-01
 -5.5702645e-02
  5.5331761e-01
 -1.0419463e+00
 -3.7090412e-01
 -8.0443525e-01
  1.0020919e+00
  7.0868403e-01
  5.5533063e-01
 -5.8846277e-01
 -5.2885377e-01
  2.5896630e+00
 -7.9192370e-01
 -6.6340733e-01
  1.1593897e-01
  3.8352845e+00
 -6.2140994e-02
  8.2488829e-01
 -5.9569146e-02
  7.0564002e-01
 -2.5229689e-01
 -2.8814679e-01
 -8.7081987e-01
  2.6578743e+00
  1.7725711e+00
 -3.9016850e-02
 -8.7200217e-02
 -7.1613625e-02
 -1.3170218e+00
  3.8935405e-01
  1.3581222e+00
  1.2777260e-01
 -4.4374126e-01
  2.4370790e-01
  2.1653882e-01
  1.8384443e-01
  9.5323600e-02
 -1.0240433e-01
  2.0550500e-01
 -4.3143976e-01
  5.1813269e-01
 -8.1678301e-01
  1.7450191e-01
 -1.5791479e-01
  2.3413210e-01
  1.4030175e+00
  2.2907801e+00
  3.9853305e-01
  2.3501942e-01
 -4.1100317e-01
 -1.8102609e+00
  1.8296645e+00
  3.3408594e-01
 -1.8408700e+00
 -1.8770599e-01
 -3.2550150e-01
  2.8788117e-01
  2.7727070e-01
 -8.0623293e-01
 -5.4067093e-01
 -1.1656075e+00
  4.4946935e-02
 -2.0562723e+00
 -1.2838076e+00
 -5.0017303e-01
 -1.8266419e-01
  1.2495447e+00
 -3.5372981e-01
 -5.8191973e-01
 -3.4898760e+00
 -1.2836283e+00
  2.9876533e-01
 -8.4426141e-01
  1.7586954e+00
 -7.5030275e-02
 -2.6095012e-01
 -1.8583573e-01
 -2.0559117e-01
  1.0379049e+00
  5.6192148e-01
  4.2945248e-01
  8.5638082e-01
  5.9673709e-01
  3.7721921e-02
  3.2498640e-01
 -2.6784721e-01
 -2.4986181e+00
  1.7450608e+00
 -9.7798306e-01
  5.8150798e-01
 -1.4896971e-01
  6.2277019e-01
 -4.2998376e-01
 -3.0067256e-01
  9.7345836e-02
  6.3282609e-01
 -4.4748846e-01
  7.2957093e-01
 -2.7095340e-02
  2.3001239e-01
 -4.6993724e-01
  1.4451500e-02
  2.7010942e-01
  3.4115139e-01
  4.9936056e-01
  4.3645870e-02
 -1.4955735e+00
  1.6998278e+00
 -1.9534985e+00
  1.8762677e+00
  1.3430918e+00
 -6.3881725e-02
  2.8057697e-01
 -2.0004082e-01
 -9.1274714e-01
 -1.1341218e-01
  6.3464147e-01
  1.0601833e-01
 -2.1279745e+00
 -7.0874119e-01
 -2.2333007e-01
  7.9572834e-02
 -9.4723600e-01
  3.6402974e-01
 -2.9899660e-01
 -2.0525298e+00
 -4.8840937e-01
  3.4670499e-01
  2.9225549e-02
 -3.4669822e-01
 -1.9300544e+00
 -4.5768514e-01
 -5.0800603e-02
 -2.0288661e+00
 -2.1044616e-02
  1.3035111e-01
  1.9579414e-01
  3.4894793e+00
  1.0838047e+00
 -3.1564242e-01
  4.3531572e-03
 -2.4206835e-01
 -3.7318707e-01
  1.5911323e+00
  1.3151215e-01
  8.2279038e-01
 -5.7468295e-01
  1.1408973e+00
 -4.1094252e-01
  6.1236358e-01
  7.3060650e-01
  1.3060783e-02
 -1.0538734e-01
 -3.5047027e-01
  1.4322835e-01
  5.0088704e-01
 -9.4465084e-02
 -4.4251847e-01
  2.8856236e-01
  9.3502641e-01
 -8.2511656e-02
  4.4751844e-01
 -8.6860836e-01
 -2.6118872e+00
 -4.9048254e-01
  5.4463613e-01
  5.9941508e-02
  8.6286640e-01
  4.6028593e-01
  1.9353963e+00
 -2.2011691e-01
  3.2272160e-01
 -5.9995228e-01
 -3.2651651e-01
 -4.9675328e-01
 -9.3179309e-01
 -2.1798930e-01
 -6.2563348e-01
  1.7952614e+00
  2.6696053e-01
  4.0979695e-02
  1.0827689e+00
  1.6574992e-01
  3.3787240e-03
 -4.9540153e-01
  5.5984575e-01
  1.4442635e-01
 -2.3190673e-02
  5.8973533e-01
  6.7610480e-02
 -2.1702723e-01
 -2.6797241e-01
 -2.9956910e-01
  6.7554826e-01
  5.5495489e-01
 -3.6770457e-01
 -3.2485193e-01
 -1.2597512e-01
  6.5578139e-01
  2.5262883e-01
 -5.4815060e-01
 -3.4516415e-01
  7.3253173e-01
  5.3507680e-01
 -6.9505855e-02
  7.4340701e-01
 -4.4009995e-01
 -5.7433646e-02
  4.4876773e-02
 -1.4476550e+00
  9.4792241e-01
 -4.5000419e-01
 -1.9324391e-01
  4.0105704e-02
  4.7033572e-01
 -1.0574452e-02
 -1.1286362e+00
 -2.3333257e-01
  1.2061235e+00
  2.4666764e-01
 -5.6605077e-01
 -5.4645574e-01
 -9.5843399e-01
 -5.2295887e-01
  1.4633270e-01
 -3.0746490e-01
 -2.9480138e-01
 -1.7111655e-02
  2.8520578e-01
 -4.1544676e-01
 -1.4276237e+00
 -7.2586626e-01
 -1.0707551e+00
 -3.5530752e-01
  1.1850166e+00
  1.8675952e+00
 -2.3528132e-01
 -2.7185025e+00
  4.6718484e-01
 -1.9641304e-01
  1.8277787e-02
  1.0081409e+00
  2.5833309e-01
  4.3008021e-01
 -2.2386108e-01
 -1.5378881e-01
  1.2046841e-01
  4.0004238e-01
  3.3072823e-01
 -7.3972589e-01
  4.0717416e-02
 -3.7624270e-01
 -1.0769074e+00
  8.4100813e-01
  9.4791897e-02
 -1.4986084e+00
 -2.2880419e-01
 -6.9490105e-02
 -6.2421426e-02
 -2.8116101e-01
 -1.2964827e-01
  9.9381953e-02
  3.6931142e-01
  2.2092853e-01
  5.1282597e-01
  3.0670710e+00
 -3.7096354e-01
  1.4779403e+00
 -1.5016598e-01
 -8.2617569e-01
 -1.0853314e+00
 -4.8620901e-01
  8.8875316e-02
  2.6600340e-01
 -6.7847148e-02
  1.2881281e+00
 -1.6457635e-01
 -8.6958337e-01
 -2.9755017e-01
 -2.8954895e-02
  1.5320969e-01
  8.5553920e-01
 -5.9596455e-01
 -2.0770955e-01
 -3.1592864e-01
  6.0909176e-01
 -2.1534071e+00
 -1.3398513e-01
  2.8051286e+00
  3.0135641e-01
  1.9840091e-01
 -5.4974240e-01
  5.4311711e-01
 -1.0432924e+00
 -3.5304210e-01
  5.9267855e-01
  1.5577491e-01
  5.6370106e-02
  2.6390603e-01
 -1.5811601e-01
  1.6382590e-01
  4.5522499e-01
 -2.4885523e-01
  1.1594781e+00
  1.3785528e-01
  3.3680922e-01
 -2.3496799e-02
 -4.6080658e-01
 -1.2861961e+00
  4.7176134e-02
 -5.0238985e-01
 -4.7001737e-01
 -8.5248888e-02
  4.5758996e-02
  1.4676113e-01
  4.1775161e-01
  6.5324748e-01
  2.0991883e-01
 -9.2757873e-02
 -1.0012507e-01
 -3.3876735e-01
  3.1653705e-01
 -1.0762866e-02
  3.9560080e-02
 -6.5197933e-01
  8.5215074e-01
 -1.6578142e-01
  1.1765797e-01
 -1.8233405e-01
 -1.4249767e-01
 -6.2135339e-01
  2.6310372e-01
  2.5604156e-01
 -8.2679981e-01
  1.9834464e+00
 -1.5188997e-02
  1.5439461e+00
  1.7556001e+00
 -2.5910547e-01
 -1.0823488e+00
  7.1329260e-01
  2.1113050e+00
 -2.8022832e-01
  9.1636169e-01
 -1.1338345e+00
  1.6443725e+00
  8.8805437e-01
  1.6148813e-01
 -2.3339923e-01
 -2.7364215e-01
  2.2821110e-01
 -1.1757901e+00
 -4.6718203e-02
 -4.7796848e-01
  1.0266914e+00
 -2.9262948e-01
  1.0777123e-01
  1.9108503e-01
  1.6876327e-01
  4.6394759e-01
 -8.2170367e-01
  1.7439765e-01
  6.3168234e-01
 -1.8561734e-01
  6.5571904e-02
 -1.8505277e-01
  5.4249600e-02
 -1.4472104e+00
 -6.1447865e-01
  4.5888865e-01
  1.3660625e+00
 -6.0759626e-02
 -3.1293878e-01
  3.9101702e-01
 -4.1426873e-01
  6.7831802e-01
  3.7666235e-02
 -9.1979474e-02
 -7.5406736e-01
  6.6530699e-01
 -8.4180957e-01
 -3.0882508e-01
 -1.6894437e+00
  4.2736781e-01
 -1.0297307e-01
 -6.0818088e-01
  1.8119044e+00
  1.3120748e-01
  5.6911582e-01
  3.5593927e-01
  1.3586670e-01
  5.8330741e-02
  9.4709140e-01
 -4.9479220e-02
  1.5552150e+00
  1.3607803e-01
 -7.9000747e-01
 -5.3703314e-01
 -3.6712420e-01
  4.9511665e-01
  1.0326342e-01
  4.0230765e+00
  3.8786507e-01
 -2.3315151e-01
 -5.0096309e-01
  1.8250993e-01
  1.2851456e-01
 -1.6869502e-01
 -5.9168149e-02
  1.6881115e+00
  3.2263842e-01
 -4.7582963e-01
 -9.5490873e-01
 -1.2689344e+00
  2.0388202e-01
  5.0119758e-01
  7.3513979e-01
 -1.3801062e+00
 -5.8143258e-01
 -1.5902655e+00
  1.6803622e+00
  2.1878493e-01
  1.3522241e-01
 -9.4540232e-01
  1.4310639e+00
  3.4744143e+00
 -5.4642326e-01
 -2.9169500e-01
 -3.0290838e-02
  2.2953160e-01
  2.8341722e-01
  1.1604718e-01
 -6.4645392e-01
  1.4428895e+00
 -1.5178680e-01
  5.2224636e-01
  4.3968365e-01
  6.7282833e-02
 -2.7555701e-01
  9.0008026e-01
 -1.1142313e-01
  9.8109894e-02
 -1.7155585e-01
 -3.8946855e-01
  3.3425218e-01
 -4.4171956e-01
  8.2081807e-01
 -1.6320357e-01
 -4.7354403e-01
  9.7871609e-02
  3.9107211e-02
  1.0285103e+00
 -7.0206714e-01
 -1.5077643e-01
 -8.2295693e-02
 -1.3576999e+00
  8.6671543e-01
 -6.6857421e-01
  2.3156503e-01
  4.9474347e-01
  1.0696207e+00
 -2.2621055e-01
  3.7680891e+00
  6.2679797e-01
 -3.4441765e-02
 -1.8682359e-01
  1.7662644e-01
 -3.0078575e-01
  2.6586691e-01
 -3.6510512e-02
  3.8065079e-01
 -2.8831401e-01
 -2.0656303e-02
 -2.8042244e-02
  9.4314866e-02
  1.8682387e-01
  5.2846313e+00
 -1.0760634e+00
 -3.9872354e-01
 -7.5392348e-01
  1.3312033e+00
  6.0377133e-01
 -3.2287267e-01
  9.4251655e-02
  2.2638645e+00
  1.6707706e-01
 -3.1810818e+00
  1.8252653e-01
  2.4875633e-01
 -7.1997511e-01
 -2.4422038e-01
  7.0260458e-02
  2.0769243e+00
  4.9537282e+00
  1.0861211e-01
 -1.3218869e-01
  3.5299575e-01
  8.0275862e-03
 -7.2535276e-02
 -1.1886771e+00
 -2.2525552e-01
  1.3837317e-01
 -1.9052680e-01
 -5.7645714e-01
 -8.7411068e-02
 -3.8977951e-01
 -3.2124624e-01
 -1.4570785e+00
 -9.3538910e-02
 -1.9779210e-01
 -1.9617319e-01
  2.6444727e-01
  3.5066390e-01
 -2.1935661e-01
  9.0178126e-01
 -1.3343069e-01
  1.5834563e+00
  1.2084657e+00
 -3.8220653e-01
  1.4639269e+00
 -1.1650057e+00
  4.5472720e-01
 -1.3725753e-01
  2.6327366e-02
 -1.3132298e-01
  5.8754575e-01
 -3.9167503e-01
  5.8401054e-01
 -2.3683998e-01
  3.3585110e-01
  3.8362542e-01
  2.3249917e+00
  1.2805930e+00
 -7.6328743e-01
  1.5925220e-01
  8.9451575e-01
  9.3264058e-02
  5.7525837e-01
  1.1664500e+00
 -2.2273482e-01
 -1.7708708e-01
  9.4369566e-01
 -2.1317825e-01
  5.1385289e-01
 -4.3050012e-01
 -2.1854274e+00
  9.5337319e-01
  1.3678004e+00
  4.6100798e-01
  2.0010434e-01
 -1.0252762e+00
 -8.3393805e-02
  1.6821371e-01
  3.8297026e+00
  3.1175584e-01
 -5.3183883e-01
 -1.9191015e-01
 -2.8114811e-01
  1.4820282e+00
  4.4443626e-02
  4.6153304e-01
 -2.2113608e-01
  2.1230890e-01
  1.6311142e+00
  8.7265447e-02
  5.3055384e-03
 -4.5759768e+00
 -1.8960600e-01
 -5.2455014e-01
 -3.7183574e-01
 -2.1932305e-01
 -7.0854515e-02
 -4.0213507e-01
 -8.5945892e-01
  5.0897831e-01
  3.6838987e-01
 -1.3346059e+00
 -1.2126985e+00
 -2.8614521e+00
  1.0696990e-02
  2.4726386e+00
  1.2092526e-01
 -5.7762630e-02
 -1.7022392e-01
 -1.1396337e+00
 -4.1415578e-01
 -7.9548186e-01
 -2.9986346e-01
  6.6455416e-02
  2.1129524e-02
  3.9543423e-01
 -6.8072456e-01
 -6.5506667e-01
 -6.0460065e-02
  6.3639493e-03
 -2.7227220e-01
 -1.4098243e-01
  1.4775733e+00
 -2.6709909e+00
 -1.7456345e-02
  4.3440857e+00
  2.3263372e-01
  7.5110041e-02
 -8.4472463e-02
  3.9323145e-01
  4.0688386e+00
  3.8446289e-01
  4.7187349e-01
  7.6936156e-02
  6.6305198e-02
  1.5535420e+00
 -8.6086994e-01
 -1.2646200e-01
 -3.7181386e-01
  8.1574626e-02
  6.4605737e-01
 -2.1627024e-01
 -1.4248754e-01
  1.1308920e+00
  1.6225772e-01
  1.1452814e-01
  1.5607594e-01
  1.2850366e+00
  5.3244039e-02
  4.5515460e-01
 -2.2861966e-01
  1.6648403e+00
  1.6126554e-01
  5.7438332e-01
 -1.9116038e-01
 -1.0917786e-01
  6.7329156e-01
  3.2183543e-01
  1.1112725e+00
  3.8677123e-01
 -6.2642727e+00
 -2.6127192e-01
  1.7540099e-01
 -2.5544530e-01
 -5.5259460e-01
 -1.8219729e-01
  9.7483724e-02
  2.6402143e-01
 -7.9848510e-01
  9.1754906e-02
 -1.7816491e+00
 -2.1981893e+00
  1.5070450e-01
  8.0606475e-02
 -2.3506983e-01
  3.2987791e-01
 -4.6080014e-01
  1.5017450e-01
  5.4552823e-01
 -1.7051589e-02
 -6.5311052e-02
  1.2245855e+00
 -2.5134361e+00
 -1.4291047e-01
  3.9142954e-01
 -5.8877009e-01
 -4.8049065e-01
  3.8462144e-01
  2.2354540e-01
  6.1767524e-01
 -1.1278032e-01
  1.2633203e+00
 -4.7098663e-02
 -1.9469931e+00
 -2.2234164e-01
  2.1498416e-01
  3.1358725e-01
  5.2892733e-01
 -5.8878404e-03
 -4.8232287e-02
  5.8679140e-01
 -5.4392897e-02
  6.1086094e-01
 -5.7222480e-01
 -5.6861490e-01
  2.7983606e-01
 -1.1727115e+00
  1.1718936e+00
  4.4414294e-01
  1.1476903e-01
  1.7133367e-01
  3.8668591e-01
 -7.4941772e-01
  7.1579352e-02
 -3.1279701e-01
 -3.8347706e-01
 -9.5876318e-01
 -3.3371878e-01
  1.1557002e-03
 -7.2457325e-01
  2.3205392e+00
 -2.1647403e-01
  9.8881263e-01
 -5.2761871e-02
 -2.5428578e-01
 -1.2955579e-01
 -7.0152074e-02
 -3.7705085e-01
  1.5993285e+00
  7.3907346e-01
  1.0193216e+00
  2.0738208e-01
 -2.3871140e-01
 -4.4345060e-01
  1.9935154e+00
 -5.8042330e-01
  4.7448686e-01
 -7.2301292e-01
  1.2264179e-01
 -3.8618648e-01
 -5.9434146e-01
 -5.5775922e-02
 -2.5320232e+00
 -9.2080899e-02
  1.6626318e-01
  3.0344349e-01
  2.7595379e+00
  1.4934680e+00
  7.5234234e-01
  9.8091327e-03
  2.1516455e-02
 -1.2524385e+00
  7.4638642e-02
  1.3316722e+00
  6.9998533e-02
  5.8177751e-01
 -1.0454918e-01
 -2.8075641e-01
 -6.2137401e-01
  2.4808149e-01
  1.9536251e-02
 -1.3916243e+00
  2.8294224e-01
  4.5891953e+00
  2.0279513e-01
  5.1588446e-01
  1.8792548e+00
 -4.5767203e-01
 -6.7037565e-01
  2.9380959e-01
 -4.4068441e+00
 -1.5335490e-02
  1.0485799e+00
  1.8437803e+00
  5.7348388e-01
 -1.1920813e+00
 -4.1259685e-01
 -7.6193368e-01
  9.5901036e-01
 -5.4850775e-01
  4.1550893e-01
  1.2432238e+00
  1.6632559e+00
  3.0904758e-01
 -1.9131188e-01
  2.0058112e+00
  7.7212763e-01
 -2.4852102e-01
 -7.0745760e-01
 -7.6468265e-01
  1.2952404e+00
  9.0329701e-01
  1.2503177e-01
  8.1712246e-02
  5.3561944e-01
 -6.3438445e-01
  4.4666523e-01
  5.7154857e-02
  7.5795609e-01
 -3.0937850e-01
 -5.4576612e-01
  6.5688834e-02
  1.1595592e-01
  2.1707571e-01
 -1.1391026e+00
  1.7911896e+00
  1.6284622e+00
  3.5694376e-02
 -4.7795257e-01
 -2.2153883e+00
 -7.8431916e-01
 -7.1218455e-01
  3.5949957e-03
 -2.0340834e+00
 -5.4996885e-02
 -1.8921368e+00
  1.9262187e-01
 -2.1095003e-01
  1.0617797e+00
  7.9662567e-01
  5.5972669e-02
  2.1313295e-02
  9.6939373e-01
 -7.2744560e-01
 -6.6337615e-01
  8.1106937e-01
 -9.9703991e-01
 -4.2092296e-01
 -9.3236899e-01
  1.0072020e+00
  2.6546474e+00
  2.2727132e-01
 -2.0785487e+00
  1.0163485e+00
 -3.0015862e-01
 -6.9012648e-01
  7.9806205e-03
  2.4613750e+00
  3.7250407e-02
  2.2369830e-01
 -4.6052191e-01
  2.7058223e-02
 -8.4931690e-01
  1.8137332e+00
  5.5346962e-02
 -1.6642377e+00
 -3.9095788e+00
  1.4707527e+00
  1.8878181e-01
  1.5073376e+00
  4.5418531e-01
 -7.2677499e-01
  1.2453559e-01
  3.3145884e-01
 -1.6550170e+00
 -2.2016590e+00
 -4.0534921e-02
  1.2456242e+00
  1.3972316e+00
  3.8761955e-01
 -2.6209857e+00
  5.3497171e-01
 -2.7434599e-01
 -2.7616280e-01
 -3.7548766e-02
 -3.4697506e-01
  3.1911826e-01
 -5.6451950e-02
 -4.1446874e-01
 -4.7343713e-01
  8.0854230e-02
  2.5503146e-02
  6.9501650e-01
  2.8532556e-01
  3.4828879e-02
  9.8937592e-03
 -1.5134546e-01
  2.2870966e-03
 -1.5590178e+00
  5.0698948e-01
 -3.3767219e+00
 -7.6382852e-01
 -1.1296961e+00
  2.0667784e+00
 -7.1051013e-01
  3.7630332e-01
 -2.1855738e+00
  1.0111175e-01
  7.3712182e-01
  5.7165839e-02
 -1.2384870e-01
  2.1386776e+00
  3.3606702e-01
  1.4834871e+00
 -7.4783824e-02
  1.6866385e+00
  9.7180897e-01
  7.7031039e-02
  5.5426961e-01
  7.2658665e-02
 -2.0177655e-01
  1.4345843e+00
 -7.7600136e-02
 -4.9571237e-01
 -7.4770682e-02
 -1.5781823e-01
  2.0554288e-01
  1.2204791e-01
 -4.8511094e-01
  4.4736028e-01
 -1.6521441e+00
  8.9906585e-01
  7.9997319e-01
  1.5557189e+00
 -3.2417813e-01
  1.8600112e-01
  1.4757712e+00
  7.7752307e-02
 -8.3217353e-01
 -2.0834103e+00
 -9.5318300e-01
 -1.9858953e+00
 -8.9896217e-02
 -1.0370635e+00
  1.1553124e-01
 -2.1676319e+00
 -4.2558518e-01
 -1.1051846e+00
  2.1581905e-01
  1.4373830e-01
  4.5066371e+00
  1.4161978e+00
 -4.0068567e-01
 -1.0405092e-01
 -2.9048440e-01
  1.7850921e-01
  7.3903121e-02
  1.1514763e-02
  1.2429537e+00
 -3.0182386e-02
  4.2196031e+00
 -1.2224949e-01
 -7.8132069e-01
  2.2478027e+00
 -9.2239714e-01
 -2.6933193e-01
  6.3076800e-01
 -1.8248310e+00
  2.2779803e+00
  8.6025470e-01
 -8.3542794e-01
  6.5827593e-02
 -3.4224281e+00
 -1.2691920e+00
 -1.7663059e-01
  9.0787208e-01
 -1.8257462e+00
 -2.9687569e+00
  8.1806667e-02
 -4.5367587e-01
 -1.2068663e+00
 -1.5839907e+00
 -6.4017725e-01
  3.2610744e-01
  1.0215743e-01
  2.0251782e+00
 -1.6566418e+00
 -3.4085035e-01
 -8.7271851e-01
  4.8356026e-01
 -5.0870275e-01
  1.3502902e-01
  1.3762507e+00
  2.0342474e-01
  6.0355914e-01
 -2.4477199e-01
  1.1122667e+00
  4.5034936e-01
 -1.7085737e+00
  1.1993146e+00
 -6.9869840e-01
 -5.4304200e-01
 -1.3264660e+00
  1.5078568e-01
  6.6948749e-02
 -6.4628559e-01
  7.5983655e-01
  4.0591717e-01
  5.0883985e-01
  1.4038135e+00
 -1.3621986e-01
  9.7475149e-02
 -4.9313793e-01
 -1.2242259e-01
  8.7709211e-02
  3.0814993e+00
  1.6848092e+00
 -9.3443441e-01
  2.5768073e+00
 -1.3480560e+00
 -9.4130099e-01
  2.7488008e+00
  1.7978950e+00
 -1.6345350e+00
 -4.3203536e-01
 -2.5343623e-02
  1.1865770e+00
  5.7277256e-01
  1.0227174e+00
 -2.6667993e+00
 -1.4330652e-01
 -9.2698127e-02
  9.5435715e-01
  2.8880005e+00
 -5.1947933e-01
 -6.2404060e-01
  2.7301183e+00
  3.0475387e-01
  8.7646145e-01
 -1.8157265e-01
  2.0539914e-01
  9.6469229e-01
  1.2126118e+00
 -2.5365388e+00
 -1.0671488e-01
  1.3240434e+00
 -8.0433190e-02
 -5.5754977e-01
 -3.1059682e-01
 -8.7826228e-01
  1.2066554e+00
  6.0448045e-01
 -3.8382170e+00
 -2.7527121e-01
 -3.2707003e-01
  1.6875923e+00
  5.7200980e-01
  4.3512410e-01
 -1.3855535e+00
 -2.9017484e-01
 -6.6614240e-01
 -7.0753521e-01
 -2.2805619e+00
 -3.9055604e-01
 -1.6232125e-01
  3.2282236e+00
 -4.3550617e-01
 -2.4478437e-01
 -3.4168723e-01
  5.0217175e-01
  3.9865416e-01
  4.5740414e-01
 -1.5550306e+00
 -7.5137115e-01
  2.4450918e-01
 -1.3226652e-01
  4.7965965e-01
  2.8953114e-01
 -6.0188817e-03
  2.5507533e-03
 -9.6576154e-02
  1.5303434e-01
  4.4312510e+00
  1.2310527e-01
 -3.6727616e-01
  1.3987592e+00
 -1.1121556e+00
 -5.8642125e-01
 -2.5055397e-02
 -1.4725289e-01
 -9.0690898e-03
 -3.9079271e-02
  2.6707768e+00
  8.1291117e-02
  1.6405033e-01
  1.3086969e+00
 -2.0776629e-01
 -4.1699547e-02
 -1.6262369e+00
 -6.7965738e-02
 -2.1598908e-01
 -3.7544337e-01
 -2.5852349e-01
 -1.8042317e-01
  4.0380847e-01
 -1.0454850e+00
  2.1773612e+00
  6.5608947e-03
  6.5752012e-01
 -5.7763630e-01
  7.2376877e-01
 -9.9905246e-01
 -3.3419251e+00
  2.2823955e-01
  5.7033783e-01
  1.0202744e-01
  1.8671935e-02
  6.2884182e-02
  9.1238014e-02
 -1.3268884e-02
  1.9466810e-01
  4.0730757e-01
 -2.1043335e-01
 -1.2536548e-02
 -2.8907649e-02
 -9.4570643e-01
  2.1127729e+00
  1.2188162e+00
 -1.0974187e-02
 -8.2990766e-02
  1.2159892e-01
 -4.4684044e-01
 -2.7210917e+00
  2.3450777e-01
 -1.6259887e+00
  9.9035150e-01
  2.1664841e+00
  9.0380466e-01
 -2.2820908e-01
 -1.9674453e+00
  2.4194217e+00
 -2.6128862e+00
  8.5065317e-01
 -3.3203167e-01
 -2.0633028e+00
  8.9101517e-01
 -2.6397112e-01
  1.3897518e+00
 -1.0167375e+00
  1.9480579e-01
 -1.3999899e-01
 -2.9322118e-01
  2.4051563e-01
  8.7056857e-01
  3.8367215e-01
 -1.3705615e+00
 -3.7199733e-01
  1.0541838e-01
  4.2812304e+00
 -1.1594819e+00
  1.2251128e+00
 -4.0596509e-01
  1.2736761e-02
  4.6115243e-01
  1.4487661e+00
  8.6451575e-02
  1.9277786e+00
 -9.3084300e-01
  1.2586511e+00
 -1.5723275e-01
 -9.9934727e-01
  2.6036993e-02
 -2.3997040e-01
  1.6781083e+00
 -5.9956771e-01
 -9.6894902e-01
  2.9620832e-02
 -2.4065783e+00
 -1.3154535e+00
  1.2423807e-02
 -1.7814028e+00
 -8.4187910e-02
 -2.8526318e-01
  1.9925895e+00
 -7.5768024e-01
  1.5641268e+00
 -2.4096903e-01
 -1.1312193e-01
  6.0790741e-01
  5.5773127e-01
  6.9647241e-01
 -1.2618166e+00
 -4.6356723e-01
 -4.6120547e-02
  7.1424484e-01
  3.3064589e-02
  2.0170033e+00
 -6.0479271e-01
 -3.7666628e-01
 -4.3068999e-01
 -2.8263335e+00
  6.4925599e-01
 -7.2474480e-02
 -7.1515095e-01
 -2.8911033e-01
 -2.5789103e-01
 -9.1304302e-02
  1.2741993e-01
 -3.0324447e-01
 -8.7479264e-01
 -1.6430357e-01
 -3.6889996e-02
 -1.9031513e+00
 -4.3006852e-02
 -5.8067030e-01
  5.3074923e-03
  1.1652194e-01
  1.8973702e-01
  1.6135702e-02
 -6.4899869e-02
 -3.3439546e+00
  5.2849486e-02
  8.2564414e-02
  2.6496443e-01
 -5.2438128e-01
 -1.3535489e-01
  1.7220385e+00
  8.5723203e-01
 -2.1454008e+00
  4.7846559e-01
 -5.8388156e-01
 -5.5957679e-02
  8.8839203e-02
  3.8461328e-01
  8.9044333e-02
  7.3553026e-01
  1.0014957e-01
  1.7707554e+00
 -3.3468392e+00
  1.3429953e-01
  1.7024767e-01
 -5.5308378e-01
  2.1948395e+00
 -3.3789489e-01
 -1.4853689e-01
  1.3196257e-02
 -2.7491070e-02
 -6.3732266e-02
  6.9556103e+00
 -6.2148958e-02
  2.7483457e-01
  1.7097384e+00
  7.9197592e-01
  2.7577651e-01
  2.0894141e-01
 -1.2775345e-01
 -2.9751945e-01
 -8.0793083e-02
 -2.2082767e+00
 -2.3168526e+00
 -1.9439191e-01
  2.3807639e-01
  1.6746345e-01
 -1.2958628e-02
 -5.4642528e-02
 -9.1038811e-01
 -3.7850982e-01
  8.2413393e-01
 -3.2603702e-01
 -1.4549300e-01
 -1.0768158e+00
 -5.1672518e-01
  4.7380937e-04
  1.3607674e+00
 -3.9476183e-01
  2.7607784e-01
  1.6024774e+00
 -2.3312299e-01
  1.9394192e-01
 -2.5543934e-01
  1.9124076e+00
 -1.7822891e-01
 -7.4176955e-01
 -1.7749156e-01
 -1.0179371e+00
 -3.9213412e-03
 -7.3121017e-01
 -3.8566798e-01
  6.6282010e-01
 -4.3502507e-01
  8.0086237e-01
 -4.0056038e-01
  7.1356255e-01
  3.5294592e-02
  2.4954102e+00
  2.0603492e+00
  2.3186831e+00
 -2.5015619e-01
 -1.5434968e+00
  2.8215414e-01
  9.3590295e-01
  2.5886700e+00
  5.4557353e-02
 -2.8778508e-02
  1.4350502e-01
  2.3092991e-01
 -8.3745509e-02
  4.2022842e-01
 -1.5898700e+00
  2.6289186e+00
  1.7903905e+00
 -2.9117242e-01
 -1.9877429e+00
 -3.6858013e-01
 -3.1930549e+00
 -2.8218099e-01
 -5.5014163e-01
 -4.7107288e-01
 -4.1921362e-01
  4.6324441e-01
  1.7670996e+00
  1.6523366e-01
  1.7791834e+00
  2.7279264e-01
 -2.2269051e-01
  1.3544112e-01
 -2.1331248e+00
 -1.1695948e+00
 -7.6434726e-01
 -7.1354419e-01
 -3.2533830e-01
  4.3554562e-01
  3.7630498e-01
 -4.5572028e-01
 -8.0712730e-01
 -1.4424241e+00
  5.2375424e-01
  1.6645662e+00
 -1.0297567e-01
 -1.2530568e+00
 -8.5036969e-01
  2.3174563e-01
 -1.6931240e-01
  2.3388337e-01
 -1.2228615e-01
  2.5098157e-01
 -6.1878997e-01
  3.5783321e-01
  1.1228513e+00
 -2.4589283e+00
 -4.0598685e-01
  3.4746587e-01
 -3.4636322e-02
 -9.9671781e-03
 -8.6556219e-02
  4.1573641e-01
 -3.8063923e-01
  6.1678839e-01
  1.9443680e+00
  2.6337711e-02
 -6.8844706e-01
 -1.1470468e-01
  1.6124570e+00
  1.4043580e-02
  5.2520163e-02
  4.6956158e-01
  4.3968603e-01
 -1.4447428e+00
 -2.2443784e-02
  5.8150840e-01
 -1.4599822e+00
 -8.7907982e-01
 -3.0187121e-01
 -1.8820238e-01
 -1.4012631e+00
 -2.9078615e+00
  3.0828580e-02
  2.3539092e-01
  2.3909718e-01
  4.0921561e-02
  8.3449602e-01
 -2.6755712e+00
  7.2758090e-01
 -7.4309117e-01
  2.3015878e-01
 -1.0178047e-01
 -2.2130047e-01
 -2.4288684e-01
 -6.9347984e-01
 -1.4833467e-01
  5.7060575e-01
 -3.8404331e-02
  7.8346252e-01
 -1.5857418e-01
 -5.5922157e-01
 -1.6718208e+00
 -2.4167917e+00
 -2.5770417e-01
 -1.2319647e-02
 -5.8109629e-01
  1.7592719e-01
 -1.0630278e-01
 -1.6553162e+00
 -4.0919125e-01
  7.3475391e-02
  8.3860502e+00
 -1.1335972e-01
  1.0983437e-01
 -1.1239056e-01
 -1.6006528e-01
 -2.8522524e-01
  1.8365036e-01
 -1.1360376e+00
 -7.0055681e-01
  4.4431108e-01
  5.0742783e-02
  7.6795004e-02
 -3.0968094e-01
 -1.0090326e-01
  1.2567313e+00
  4.5244604e-01
  1.9201121e-01
  1.4842943e+00
 -5.2863985e-01
  9.9782634e-01
 -1.8798872e+00
 -1.7812786e+00
 -1.7021608e-01
 -8.4679300e-01
  1.1149853e-01
  6.8813843e-01
 -1.6957726e+00
  2.1938334e+00
 -1.0435864e+00
 -2.1456032e-01
 -1.2861214e+00
 -2.3154905e-01
  4.3966132e-01
  9.0704024e-02
  1.8200999e+00
 -7.4155885e-01
  1.6378617e+00
 -2.3850466e-01
 -1.3836278e+00
  1.0048203e-02
 -1.4702049e-01
  4.8552640e-02
 -2.0270409e-02
  1.5016477e-01
 -1.1203834e+00
 -1.7059392e-01
 -4.9798167e-01
  1.5654570e-01
 -1.3346820e-02
 -3.9046180e-01
 -3.1153792e-01
  9.9159107e-03
 -2.7051362e-01
 -7.8961098e-01
  5.7610642e-02
  6.0212928e-01
 -5.1891249e-01
  7.0187211e-01
 -8.6946446e-01
 -1.1157032e+00
 -2.2073770e+00
 -2.3524466e+00
  1.6601259e+00
 -7.2881567e-01
 -8.5391438e-01
 -5.3981793e-01
  7.3653352e-01
  5.1281583e-01
  6.7613012e-01
  1.5864980e+00
 -7.2769552e-02
 -1.1315158e-01
  4.4156116e-01
  4.9429312e-01
 -7.9326934e-01
 -1.9445889e-02
 -1.9999883e-01
  9.6541464e-01
 -4.6396542e-02
 -2.3030055e-01
  1.7735027e-01
 -5.5233163e-01
  2.0929264e-01
 -2.5515689e-02
 -4.9361667e-01
 -1.0214777e+00
  3.4017131e-01
  3.6200115e-01
  4.0552840e-01
 -1.4272546e+00
  1.6500489e+00
  1.8502176e-01
 -4.1610399e-01
  2.9706192e-01
 -7.7603117e-02
 -6.3483357e-01
 -5.9898112e-02
  3.5518861e-01
  1.1047172e-01
  3.9437464e-03
 -1.8161164e-01
  2.6639488e-01
  6.5028541e-02
  2.4621558e-01
 -1.2342021e-01
  4.7325128e-01
  5.7423991e-01
  5.9196800e-01
 -1.4891626e-01
  2.6670015e-01
 -2.2262467e-01
  5.7314861e-01
 -8.2327813e-01
 -1.9432575e-01
 -9.4033402e-01
 -1.3318299e-01
  1.2845922e+00
 -4.7118926e-01
 -2.6365831e-01
 -1.3035195e-01
 -2.5921875e-01
  2.8778008e-01
 -1.6348878e+00
 -3.9115602e-01
  1.6505734e+00
 -8.9761712e-02
 -1.0356215e+00
 -1.2749409e-02
  5.1184454e+00
 -1.9651172e-01
  3.4216627e-02
 -3.8729519e-02
 -1.4433559e-02
  2.9104641e-01
  1.6876727e+00
 -8.1896022e-02
  8.7370241e-01
  1.8016138e+00
 -8.1028265e-01
 -1.6417739e+00
 -2.8065627e+00
  1.5482539e+00
 -1.3631674e+00
  1.2800913e+00
  7.6686539e-02
 -3.5084787e-01
 -8.0403888e-01
  1.6121948e+00
  4.0752048e+00
 -5.4663652e-01
 -2.2978337e-01
  1.1342989e+00
 -3.3452538e-01
 -4.4345871e-01
  1.8917722e+00
  6.8603897e-01
 -1.5815572e-01
 -1.5354567e+00
  5.1163197e-01
 -1.5018810e+00
  2.1716411e+00
 -7.1509075e-01
  1.0866673e-01
  2.3056011e+00
 -8.3429593e-01
 -4.3477008e-01
  2.4604137e+00
  9.2249596e-01
 -7.5841570e-01
 -2.0758257e+00
  2.5218776e-01
  1.6511602e+00
  8.8046022e-02
 -3.3759844e+00
 -7.2403300e-01
 -2.2576423e+00
 -6.8616277e-01
 -3.0374846e+00
 -3.4223232e+00
  1.6247501e+00
  1.0333937e+00
  8.3566231e-01
 -4.8540583e-01
 -3.9756984e-01
 -1.4808355e-01
 -1.2559606e+00
  2.5770643e-01
 -3.7853247e-01
  4.2300295e-02
 -9.0495002e-01
  1.1487232e+00
  6.5507501e-01
 -1.9923568e-02
  1.0012430e+00
 -1.1209862e+00
  4.8822060e-01
 -6.6875249e-01
  7.2259718e-01
  1.6048241e+00
 -1.3351539e+00
  1.4340907e+00
  4.0259668e-01
 -9.3667567e-01
 -6.4572740e-01
 -4.1910853e+00
 -5.4894909e-02
 -6.7650270e-01
 -1.5645953e-01
  6.7744434e-01
 -2.0836165e+00
 -1.6329265e-01
 -1.0451347e+00
  1.0624329e+00
 -1.2887561e-01
 -5.0633252e-01
  1.2884876e+00
 -1.2508515e+00
  6.1976594e-01
  2.7434826e-01
 -5.9497350e-01
  5.6130260e-01
 -3.6233366e-01
  1.8809960e+00
 -8.6169785e-01
  1.4211416e+00
 -2.8514514e+00
 -8.8614661e-01
 -8.1279463e-01
 -1.2111351e+00
 -1.3066958e-01
  1.0988075e+00
  4.4244747e-03
 -1.5641938e-01
  9.8318666e-01
  2.5037370e+00
  1.0634984e+00
  1.3866322e+00
  8.3232880e-01
 -4.4896984e-01
  1.0993918e-01
 -1.3292221e+00
 -1.8098563e+00
 -1.4733856e+00
  1.0001048e+00
  8.6621159e-01
 -1.2175359e+00
  4.3185982e-01
 -1.4782591e+00
 -2.5524025e+00
 -9.2082953e-01
 -1.9220113e+00
  8.5657668e-01
 -6.8874896e-01
 -1.8551199e-01
  1.2245589e+00
  1.3289995e+00
  4.7574440e-01
 -9.3031031e-01
 -2.5113693e-01
  1.2992361e+00
 -1.6419079e+00
 -3.6911175e-01
  4.6491706e-01
 -3.9981727e-02
 -3.8689676e-01
  2.5795668e-01
  1.2974635e+00
 -9.4461501e-02
  4.3381533e-01
  4.7064555e-01
 -2.4673235e-01
  8.6405295e-01
 -1.3247167e+00
  8.6482860e-02
 -7.2806992e-02
  7.8641462e-01
  8.4825611e-01
 -2.2395462e-01
 -6.3412242e-02
 -2.3666439e+00
 -1.2692717e-01
  1.7388165e-02
  1.4641922e+00
  3.9112249e-01
  1.3756993e+00
  9.8865724e-01
 -5.8691943e-01
 -1.8390436e-01
 -2.5467330e-01
 -4.4396207e-01
 -1.1290418e+00
 -6.0722280e-01
  2.0219055e-01
  1.0374131e+00
  7.5059152e-01
 -9.8396137e-02
  1.9379528e-01
  6.5208238e-01
  1.1385373e+00
  9.2139441e-01
 -6.5391320e-01
  5.1176745e-01
  1.8480312e+00
 -6.1511523e-01
 -1.2263311e-01
  4.2264971e-01
  1.6544245e+00
 -1.1014223e-01
 -2.9192361e-01
  1.6322046e-03
 -3.8042206e-01
 -2.0752742e+00
  4.6860460e-02
 -2.5698318e+00
  6.1735366e-02
 -3.9723752e+00
  3.3599249e-01
  1.2084635e+00
 -6.8311527e-02
 -1.3582544e+00
  4.5134455e-01
  1.7025566e+00
 -1.0857263e+00
  3.4705269e-01
 -9.3354799e-02
 -1.0039943e-01
  4.8032305e-01
 -1.0721137e-01
 -6.0430753e-01
  1.3781814e-01
 -1.1201683e+00
 -1.6756164e+00
 -4.8241571e-01
  3.7709922e-02
  1.2136772e+00
  4.3767428e-01
 -4.9965346e-01
 -1.2503202e-01
  1.8622439e+00
  6.2517101e-01
 -1.0722377e+00
  2.0573971e+00
  1.2272713e+00
  7.8798151e-01
  7.4880356e-01
  4.5099610e-01
 -2.5961083e-01
  5.1133817e-01
  1.1126584e+00
 -5.2660376e-01
 -4.1983336e-02
 -1.3236502e-01
 -5.4836410e-01
  1.8533359e+00
  2.1336915e-02
  1.0444588e-01
 -5.3184766e-01
  2.3847088e-01
 -3.1645682e-01
 -1.1706854e-01
  3.4106493e-01
  1.1105578e-01
  5.3445673e-01
 -3.2751399e-01
 -1.0972161e+00
  4.2419534e-02
 -1.2018247e+00
 -1.2919414e-01
  7.2824821e-02
  1.1899772e+00
 -3.4497008e-01
  3.4568951e-01
  4.8560506e-01
 -9.4188213e-02
 -5.3995365e-01
  1.1047527e+00
 -1.2446760e+00
 -6.5501809e-01
  5.0368208e-01
 -3.1894392e-01
 -1.2850484e-02
  2.2310150e-01
  1.3225903e-01
  6.4168274e-01
 -1.7715190e-01
 -2.9063967e-01
 -3.0885589e-01
 -4.2663091e-01
 -1.2295795e-01
  6.5097958e-01
  1.4027290e-02
 -1.9350056e-01
 -1.2441672e-01
  7.8859337e-02
  1.5028676e-01
 -2.9740109e+00
  2.4344853e-01
  7.9881710e-01
 -1.1632537e+00
 -8.2089394e-02
  5.6118023e-01
  8.5722908e-02
  9.1357929e-01
 -5.0979149e-01
 -3.7320939e-01
 -1.2682659e-02
 -2.9961759e-02
 -5.1773196e-01
  2.9223022e-01
 -9.3698215e-01
  4.4051670e-02
  6.6738397e-02
 -7.3153710e-01
  4.5593005e-01
  2.5842240e-01
  9.1578811e-02
  5.1086500e-02
  5.5193073e-01
 -1.2972701e+00
  4.8280124e-02
  2.1400182e-01
  2.8223473e-01
 -7.0250653e-02
  4.8544571e-01
 -4.4249013e-01
  5.1008868e-01
 -9.8009624e-02
  1.0057612e-01
  1.5475233e+00
 -9.2452699e-01
 -1.1373957e-01
 -1.3273723e+00
 -1.1019597e+00
 -4.4476354e-01
  4.6085677e-01
  6.6059428e-01
 -4.0841584e+00
  1.8919210e-01
  5.9769970e-01
  1.8879356e+00
  1.0830641e+00
 -1.0268212e-01
 -2.2115963e+00
  5.5386519e-01
  1.1372234e-01
 -2.0795809e-02
  4.1347128e-01
 -1.4304918e-01
 -9.6723992e-01
  2.0923421e+00
 -1.3897066e+00
 -3.6243695e-01
  1.2332220e+00
  6.7872250e-01
  3.5365012e-01
  2.3372958e+00
 -2.9613508e-03
  8.5754149e-02
 -2.1321359e+00
  7.4680203e-01
  8.4819496e-01
 -3.7672952e-01
  2.6700595e-01
 -8.7830313e-02
  3.0214155e+00
 -5.1927710e-01
  5.0156397e-01
 -3.9774650e-03
  5.3510821e-01
  1.0038915e-01
 -3.8456306e-01
  4.7112742e-01
 -6.6946018e-03
  1.3172272e+00
 -5.1404577e-01
 -9.0508765e-01
  1.0555755e-01
  3.5099775e-02
  4.9736802e-02
 -5.0604112e-02
 -2.7327386e-01
 -1.3566469e+00
  1.5967696e+00
 -9.4244450e-01
  6.8780911e-01
  5.8436251e-01
  1.6053778e-01
 -4.0779036e-01
  3.2676947e-01
 -4.7914582e-01
 -6.3535976e-01
 -4.8305646e-01
 -1.7885253e-01
  6.4473128e-01
  1.1107692e+00
  7.5304812e-01
 -8.7832399e-02
 -6.7342669e-01
 -1.1792923e+00
 -1.4212798e+00
 -2.2084191e+00
 -1.5662621e-01
 -1.2156645e-01
  4.3451816e-01
 -3.4812059e+00
  7.3738199e-01
 -3.7679493e-01
 -1.2855332e+00
  9.2993360e-03
  1.4824185e-01
 -5.2955395e-01
  1.2166131e+00
  2.7114570e-01
 -1.6672978e-01
  2.0837331e+00
 -5.7789106e-02
  2.0493507e+00
  4.4560054e-01
 -1.7791191e+00
 -6.7546898e-01
 -2.4304403e-02
 -4.7838348e-01
  4.0161228e-01
  6.6439897e-01
  4.5685488e-01
  9.9507564e-01
  1.6809675e-01
  1.9485648e-01
 -1.2405908e+00
 -5.4142720e-01
  3.2000458e-01
  6.9761485e-01
  7.9804695e-01
 -1.0034017e-01
  4.8168343e-02
 -7.3924661e-01
 -1.4666280e+00
 -8.8859057e-01
 -1.9346780e-01
  1.1781882e-01
  1.4942963e+00
  6.9960886e-01
  1.2514070e-01
  1.6227500e-01
  2.6582346e+00
 -7.1038651e-01
 -2.9051747e+00
 -9.3616605e-01
 -1.8509285e+00
 -1.7049333e+00
 -1.2952652e-03
  1.0900546e+00
 -1.2297983e+00
 -6.0218312e-02
  1.4680321e+00
 -6.7440790e-01
 -1.4383169e-01
  1.0556735e+00
 -1.4322903e+00
  7.2851948e-02
 -2.1211717e+00
  3.8031802e-01
 -2.3919368e+00
  3.0620847e+00
 -4.6510106e-01
 -1.9112058e+00
 -5.3918397e-01
  8.7498832e-01
  2.0325661e-01
 -1.3416282e-02
  4.4375816e-01
 -1.3014584e+00
 -7.9149224e-02
 -8.0429554e-01
  1.1156906e-02
 -3.3126853e+00
 -7.3409855e-01
 -1.3566866e+00
 -1.4363247e-01
 -3.2286772e-01
  2.1004877e+00
  1.6951933e+00
 -3.7664744e-01
  3.5503075e-01
  1.3010865e-01
 -4.3850023e-01
  3.6512738e-01
 -1.2789446e-01
  3.4377682e-01
 -6.6324645e-01
 -5.4582837e-03
  5.4211050e-01
 -9.6955121e-02
 -3.8499597e-01
  2.7541739e-01
  8.0127305e-01
  1.7186660e+00
 -4.1037264e-01
 -2.4549119e-01
  6.1446840e-01
  5.9165429e-02
 -4.3440379e-02
 -5.4559588e-01
 -6.4691126e-01
 -1.7895167e+00
 -1.3529693e+00
  7.3217118e-01
  1.9186726e-01
  5.1602429e-01
  3.3507779e-01
 -1.1297206e+00
  1.4750526e+00
  9.2998832e-01
 -3.5140184e-01
  1.1238853e+00
 -2.5607952e-01
  1.1672403e+00
  2.3141627e+00
 -1.1317502e+00
 -5.2180153e-01
  2.2781312e+00
  2.9365534e-01
  1.1408609e+00
  4.3985748e-01
 -2.5552449e-01
  1.3106430e+00
  1.4240427e-02
 -2.3675190e-01
  3.5774046e-01
 -7.4868107e-01
  9.2560422e-01
 -7.6861209e-01
  1.2489573e+00
  1.5947244e-01
  5.4992479e-01
  2.4778609e-01
 -7.0830777e-02
 -9.2741895e-01
  4.0120281e-02
  3.4482840e-02
  1.5286554e-01
  3.9580402e-01
  1.4145467e-01
  2.3956752e-01
  1.2037473e+00
  1.4097766e+00
  1.2958121e+00
  2.0124216e-01
  7.1278495e-01
  3.4319198e-01
  5.5546021e-01
  9.2685443e-01
 -5.3877324e-02
  9.9107748e-01
  4.5630905e-01
 -1.5758651e+00
 -6.3177329e-01
  5.0522983e-01
 -1.1325554e+00
  1.4561948e+00
 -1.6672669e-01
 -5.8795238e-01
 -8.2205623e-01
 -1.6768664e+00
  2.2446408e+00
 -3.1551534e-01
  5.4122284e-02
 -3.8756153e-01
  6.8704128e-01
  1.2500055e-01
 -2.0584784e-01
 -6.8408185e-01
 -2.0674441e+00
  1.1761428e-01
  1.2463993e-01
 -4.8418033e-01
  4.1855934e-01
 -3.9147672e-01
 -1.3913043e+00
 -5.4590577e-01
  1.9063973e+00
  1.3387556e+00
  1.3942342e+00
 -1.3986328e+00
  5.3207338e-01
 -1.5700269e+00
 -1.4022435e+00
 -8.1176674e-01
  1.7946885e+00
 -2.1340954e-01
 -3.8590520e-03
 -2.2724129e-02
  1.6348118e+00
  9.3148341e-03
  2.8276520e+00
 -6.2790694e+00
 -2.0819499e+00
 -2.6990789e-01
 -4.0154204e-01
  1.2033774e-01
  7.9237181e-01
  2.7969596e-01
  1.6442543e+00
 -2.1111529e-01
 -7.6087713e-02
 -1.7468033e+00
  1.1208020e+00
 -7.9172933e-01
 -4.4224720e-02
 -3.4965150e-02
  1.5086131e+00
  3.6720327e-01
  7.7464873e-01
 -1.5756024e-01
 -1.3655585e+00
 -5.0124359e-01
  3.3299541e-01
 -8.4210092e-01
 -5.1935548e-01
  3.7899584e-01
  4.0447509e-01
  6.0940538e-02
  7.8298509e-01
  1.9129385e-01
 -4.1527998e-01
 -8.0496985e-01
  1.4857821e+00
  7.0387691e-02
 -1.6539968e+00
  7.6737922e-01
 -2.1060598e+00
 -3.5411926e-04
 -1.4855272e-01
  3.0758190e-01
 -6.3940352e-01
  8.2033002e-01
 -3.6573911e-01
  2.5243220e+00
 -1.9588038e-01
  9.9972105e-01
  2.7208611e-01
  1.9919302e+00
  1.2424055e+00
 -3.3142898e-02
  8.7566924e-01
  6.4273155e-01
  6.0028213e-01
 -4.4750932e-01
  1.4888588e+00
 -3.1780265e-03
 -6.5074481e-02
  5.4792881e-01
  4.4890571e-01
 -1.8460372e-02
  1.9185120e-01
  5.4540282e-01
 -8.8654198e-02
  2.9798332e-01
 -6.5674126e-01
  1.5463570e+00
 -3.7735218e-01
  9.8967898e-01
 -1.7335705e+00
  1.6059595e-01
  9.3632150e-01
 -2.3589645e-01
  4.1333961e-01
  1.3950723e+00
 -3.8575634e-01
  3.5791823e-01
 -1.5280327e-01
 -2.4682455e+00
  4.7458494e-03
 -6.0739720e-01
  5.1995122e-01
  2.1482718e+00
 -5.7349634e-01
 -4.1384253e-01
 -1.8249099e+00
  9.8734790e-01
  5.9246074e-02
 -5.9201279e+00
  6.0016203e-01
  1.0254109e+00
  1.4335443e+00
 -3.7461750e-02
 -3.5975558e-01
 -5.6831485e-01
 -1.6290759e+00
 -3.9769569e-01
 -1.2225251e+00
  2.3986925e-01
 -7.2968408e-02
  1.0667162e-01
 -1.2467060e+00
 -1.6101676e-01
  5.7853395e-01
  2.8037157e+00
 -6.0512893e-02
  1.9656594e-01
 -4.8061305e-01
 -1.9995975e+00
 -2.0782395e-01
  2.6630125e+00
 -6.1686862e-02
 -1.2245554e+00
 -4.1216508e-01
 -2.7036092e+00
  1.8687502e+00
  1.2375613e+00
  1.3311901e+00
 -2.2912662e+00
  9.6554071e-01
  1.6782932e+00
  3.1097121e+00
 -4.9023512e-01
  2.5990555e+00
 -4.1690074e-02
  8.8594037e-01
  1.2757716e+00
 -3.9406213e-01
 -9.2504710e-02
 -5.9577823e-03
 -1.7423736e-01
 -4.5219523e-01
 -3.7490043e-01
  3.8841360e+00
  1.5033677e-01
 -5.2233762e-01
  4.9386230e-01
 -1.7865555e-01
  3.2241413e-01
  3.7888359e-02
 -2.1607594e-01
 -1.6826885e+00
 -1.9060625e-01
 -1.9731973e+00
  7.3408598e-01
  9.9130112e-01
 -2.2997885e+00
 -2.3859021e-01
 -1.5716909e-01
 -3.5647255e-01
  1.0536101e+00
  6.5949261e-01
 -2.7094099e-01
  5.9652203e-01
 -2.0969914e-01
 -1.2859677e+00
 -1.4588707e-02
 -6.0413390e-01
  4.9116916e-04
  9.6218759e-01
  7.4862063e-01
 -4.2943594e-01
 -1.3331415e-01
  8.5961699e-01
  9.8864061e-01
  1.8250105e-01
  5.8150847e-02
  1.1111691e+00
 -2.9773796e-01
 -7.7267170e-01
  2.6520649e-01
 -7.4374485e-01
  4.2980042e-01
 -5.5102497e-01
  3.4710431e-01
 -1.9096747e-02
  9.7595888e-01
  5.9936750e-01
 -1.4798074e+00
 -1.3364874e+00
  6.3454515e-01
  1.4893512e+00
 -6.3442760e-03
 -4.3494135e-01
  6.2343186e-01
 -7.2226308e-02
  5.8923471e-01
  4.1703129e-01
 -2.0334333e-02
 -6.8525094e-01
 -8.8847354e-03
 -1.0234425e+00
  3.4976655e-01
 -1.3450265e-01
 -6.8299361e-03
 -3.9773923e-01
 -2.2542141e-01
  5.4567856e-01
  1.1867774e+00
  3.4618080e-01
  2.3784439e-01
 -1.8458651e-01
  4.4622716e-01
 -1.9685915e-01
 -1.4188786e-02
  1.4192699e-01
 -4.6501428e-01
 -1.4238465e-01
 -1.1442420e-02
  2.1573335e-01
  1.5525338e-01
  6.1725702e-02
 -1.7081533e-01
  1.9725350e-01
  3.8227579e-01
  1.2178040e-01
  1.6724005e-01
 -9.1262408e-02
  1.7769113e-01
  5.6785762e-01
 -2.3152047e-01
 -2.0861665e-02
 -7.9524577e-01
 -1.3987442e-03
 -1.0558976e+00
  8.8691819e-01
  1.2740639e-01
 -1.5718567e-01
 -1.4414041e-01
  7.4154544e-01
 -8.5127896e-01
  5.5856496e-01
  4.1369777e-02
 -1.1914129e+00
 -1.0302093e-02
  2.4282734e-01
  1.0179858e-02
  8.8161206e-01
  2.0869391e-02
  6.4640329e-03
  6.6573359e-02
 -1.7537215e-01
 -3.1186754e-01
 -1.0250933e+00
 -1.1217244e+00
  5.2804196e-01
 -1.2827171e-01
 -2.0433347e+00
  2.3327059e-01
 -6.5665364e-02
  1.9165063e-01
 -4.9859309e-01
  3.1537011e-01
  7.0604207e-03
  4.5342281e-01
  6.5949917e-01
  1.0063344e+00
  1.3129547e+00
 -3.2256804e+00
  8.8094938e-01
  3.9212719e-01
  1.3603805e+00
  1.7650441e+00
  5.1477823e-02
 -2.6492615e+00
 -4.3277258e-01
  1.4289199e-01
  2.7775352e+00
 -1.9325818e-01
  3.2096405e-02
  1.1193761e+00
  5.4396975e-01
 -1.7470537e-02
 -1.1687560e-01
  1.1791795e+00
 -1.4428457e+00
  9.8952639e-01
 -1.0134050e-01
 -3.8134953e-01
  1.8257684e+00
  9.6089190e-01
  1.1148924e+00
  7.2269462e-02
  7.7795237e-02
 -1.2768893e+00
 -9.5041221e-01
  1.0109397e+00
  4.0138945e-01
 -6.3785821e-01
  9.7239852e-01
  5.0933087e-01
  6.0129857e-01
  1.1549697e+00
  1.2720081e+00
  1.1819942e+00
 -1.2649072e+00
 -8.4537297e-01
 -1.1316829e+00
  1.3984224e+00
 -2.4931327e-01
  1.9657844e-01
 -2.6199853e+00
  4.6731453e-02
  9.0958118e-01
  4.2372763e-01
  5.3243345e-01
 -2.4131733e-01
  1.6552438e+00
 -3.1598961e-01
 -4.5785591e-01
  2.6203394e-01
  5.9452225e-02
  3.1845510e-02
  3.8691726e-02
 -6.2405181e-01
  5.1531516e-02
  3.0954584e-02
 -1.0197703e-01
 -7.4767911e-01
 -1.9566688e-01
  1.5147525e-01
 -1.7590627e-01
 -1.6416264e+00
 -7.8755461e-02
  1.2692481e+00
 -5.3195167e-01
 -6.2457740e-01
 -2.2133920e+00
  3.0532581e-01
  5.4242440e-02
  3.2039732e-02
  2.3976436e-01
 -7.1690094e-01
  5.2316678e-01
  2.4861030e-01
 -3.3092371e-01
  2.7662888e+00
  5.2860892e-01
  1.2437688e+00
 -3.5220474e-01
 -2.5459275e-01
 -3.0832443e-01
  2.8222507e-01
 -2.3468868e-01
 -1.4525822e+00
  5.2886224e-01
 -8.4028326e-02
  4.3954900e-01
  1.7215957e-01
  1.5476406e-01
  5.1739085e-03
 -8.2987887e-01
  6.8383887e-02
 -9.8848686e-02
 -8.2069278e-02
 -2.3250506e+00
 -7.6471120e-02
 -4.9717355e-01
 -7.5334430e-02
  6.7244293e-03
  5.6841123e-01
  8.4640723e-01
 -2.7593544e-01
 -8.7214142e-02
  1.2913895e-01
  1.7701788e+00
  2.4336843e-01
  7.8141838e-01
  8.0522430e-01
 -1.0515004e+00
  4.0280789e-02
  1.6382757e+00
 -3.0614867e+00
 -1.2296624e+00
 -2.7336442e-01
 -9.7558305e-02
  8.6533791e-01
  2.1859564e-01
 -1.7688454e+00
  1.5404060e+00
  8.7774849e-01
 -7.6699138e-01
 -6.2576050e-01
 -4.6793256e+00
  7.3467553e-02
 -1.9841598e-01
  9.6339481e-03
 -3.8913497e-01
 -8.6253542e-01
  1.3525451e+00
  2.4093594e-02
  1.0644939e+00
 -1.0965352e+00
  1.2967540e-01
 -2.0456297e+00
 -1.0989286e-01
  7.3287404e-01
 -1.6858473e-02
  3.5518441e-01
  8.3620995e-01
 -1.6669481e+00
 -6.0907310e-01
  4.4194427e-01
 -3.4403571e-01
  4.5840731e+00
  1.8273517e+00
 -1.5649844e+00
  2.3488724e-01
 -1.2231593e+00
 -1.8278153e-03
 -3.7769872e-01
  3.2622537e-01
  5.3319079e-01
  1.2916948e+00
 -1.1382449e+00
  4.9354112e-01
 -2.6110950e-01
 -1.4009242e-01
  6.8100339e-01
  4.4208142e-01
 -3.4864056e-01
  9.3072164e-01
  1.7558070e-01
  2.6423867e+00
 -1.2738065e-01
  5.6298202e-01
 -8.3572495e-01
 -9.1263279e-02
  2.5012705e-01
  1.9131759e-01
  9.6086353e-01
  2.3112411e+00
 -1.7160532e-01
  8.9054686e-01
  3.9269203e-01
 -3.2483861e+00
  5.4465806e-01
 -6.9411796e-01
 -9.1262376e-01
 -2.8183356e-01
  4.9436897e-01
 -8.2876670e-01
 -2.6390618e-02
  1.0939376e+00
  2.8630778e-01
 -4.7740838e-01
  3.8061076e-01
 -1.6358551e+00
  6.0016501e-01
 -5.2927703e-01
 -1.5115912e+00
 -1.5403399e+00
 -5.9455419e-01
 -1.9537526e-01
 -1.1348064e+00
  2.6158196e-01
 -2.6987724e-02
 -1.5310633e+00
  7.9900014e-01
  4.9619493e-01
  3.6125690e-01
 -2.3420976e-01
  2.0796597e+00
  1.2813283e+00
 -1.6238787e+00
  1.4886314e+00
  2.5959486e-01
  1.4329039e+00
  5.8410995e-02
  1.7055322e+00
  1.7658442e+00
  1.5188236e+00
  2.1740406e+00
 -2.3031767e-01
  3.0432004e-01
  1.9093163e-02
 -4.7536172e-02
  4.1853088e-01
 -1.4291303e+00
  8.6273527e-01
 -1.4410791e-01
  1.7555290e+00
  7.6014304e-01
 -8.3656555e-01
  9.2523009e-01
 -1.1780190e+00
  5.3145140e-01
 -7.1431810e-01
  4.0881972e+00
 -1.6772961e-02
  9.2145979e-01
 -2.3535786e+00
 -1.7177795e-01
  5.3447943e+00
 -4.6008775e-01
 -1.7215889e+00
  2.8529286e+00
  7.5654405e-01
  4.9751145e-01
 -1.2839167e+00
 -8.3907902e-02
 -4.1362047e+00
  8.7820858e-01
  1.4693825e+00
 -2.0465937e-02
  1.8043693e-02
  1.0965205e+00
 -1.2952049e+00
  1.0235351e+00
  1.1686577e+00
 -1.6394011e+00
 -6.7571419e-01
  1.2539903e+00
 -9.7938663e-01
  7.4867529e-01
  1.3362929e-01
 -1.1333041e+00
 -2.2910801e-01
 -2.3943850e-01
 -9.9208128e-01
  4.5543534e-01
  1.5030283e-01
  2.2050269e+00
 -2.5059903e-02
 -1.6288211e+00
  4.5607027e-01
  3.6161687e+00
 -8.6242683e-02
  6.2119734e-01
 -1.0614392e+00
 -2.1111248e+00
  1.4073513e+00
 -1.9309196e+00
 -1.1643641e+00
 -1.3557582e-02
  1.2567823e+00
  9.4287926e-01
 -3.4523374e-01
 -1.8442076e-01
 -5.5940247e-01
  4.6004340e-01
  1.4509988e-01
 -1.6267617e-01
 -8.1009555e-01
  2.6365837e-01
  7.4362230e-01
  4.6003547e+00
 -1.3447173e+00
  3.4909138e-01
 -2.0088768e+00
 -9.5180523e-01
  3.7496772e-02
  6.3027936e-01
  8.3654279e-01
 -8.3967841e-01
  1.4671283e+00
  2.5397274e+00
 -5.3343385e-01
 -1.7330780e+00
 -3.4754295e+00
 -7.5129205e-01
  2.4066114e+00
  1.0473459e-01
 -8.9515048e-01
  3.6110964e-03
 -2.0923580e-01
 -5.9035569e-01
  3.2057841e+00
 -8.8718098e-01
  3.3692014e-01
  1.3813212e+00
  2.8665289e-01
  1.0635341e-01
 -9.5506495e-01
 -3.7437792e+00
 -2.3795845e-01
  3.3051021e+00
  2.5924673e+00
  8.6623383e-01
 -2.4165187e+00
 -8.5423809e-01
  5.3015012e-01
 -3.9788170e+00
 -1.7570349e+00
  2.8415151e+00
  2.8465967e+00
 -3.9198310e+00
 -1.6398464e+00
 -2.2272964e+00
  7.0024645e-01
 -6.3668209e-01
  1.4080205e+00
 -1.4221575e+00
 -8.9882815e-01
  1.2931612e+00
 -1.2479392e+00
 -9.0777993e-02
  3.9525390e-01
 -9.1861713e-01
 -1.9689889e-01
 -3.7587610e-01
 -2.8206566e-01
 -1.0984864e+00
 -6.4726460e-01
  2.8182528e+00
 -2.2439804e+00
 -2.1522973e+00
 -3.3002725e+00
 -2.5686345e+00
  8.5173416e-01
 -4.9342048e-01
 -1.8141404e-01
  1.2395405e+00
  4.4389176e+00
 -1.0004263e+00
 -4.2735252e+00
 -8.7910109e+00
 -1.5117129e+00
 -9.6083206e-01
 -1.2130109e+00
 -5.5737728e-01
  1.7677343e+00
  1.0070831e+00
 -2.6007849e-01
 -5.0761694e-01
 -2.7262741e-01
  5.5720359e-01
 -9.9611521e-01
  5.1993173e-01
 -3.6883492e+00
  2.0478165e+00
 -2.3047037e-02
  1.3770381e-01
 -6.4546591e-01
  3.0806935e-01
  2.1409346e-01
  1.7615470e+00
  7.9522394e-02
  5.1363759e+00
 -5.0243998e-01
 -2.1774478e+00
 -3.1211357e+00
  1.6185831e+00
 -2.9117090e-01
 -9.7977215e-01
 -1.6513934e+00
 -4.2935991e-01
 -1.2988333e+00
 -8.1232673e-01
  1.2118107e-02
 -4.3665859e-01
  1.7300457e+00
  3.8205394e-01
  9.8566130e-02
  4.5920739e-01
 -2.7930739e+00
  6.7149031e-01
 -6.8395710e-01
 -2.6832144e-03
 -6.1601322e-02
 -6.4823382e-02
 -3.4695435e-01
 -2.4193899e-01
 -1.2486284e+00
  5.2702150e+00
  1.6892173e+00
  8.4935114e-02
  1.5745779e+00
 -1.3239788e+00
  1.4465330e+00
 -7.9087150e-01
 -6.6203302e-01
  1.5046977e-01
 -1.3641762e+00
 -2.0684772e+00
 -2.7453873e-01
  9.8375374e-01
  4.7220793e-01
 -3.0855846e-01
 -2.0820495e-02
  3.9901420e-01
  1.8481236e+00
 -6.4540201e-01
  5.0451823e-02
 -1.2807596e+00
 -7.6910865e-01
  4.9179223e-01
 -6.8890631e-01
 -6.6373658e-01
 -6.6956252e-01
  5.1231825e-01
 -2.8975561e-01
  5.7102567e-01
 -5.7590657e-01
  5.3737593e-01
 -1.1129159e-02
 -1.3066739e+00
 -7.1210563e-02
 -5.0061833e-02
 -2.8498718e-01
 -7.4103963e-01
 -4.7669822e-01
 -2.0328328e-01
 -7.1998751e-01
  1.4461929e+00
 -2.0939403e+00
  2.1791510e-01
  3.0732778e-01
  7.2094035e-01
  2.2968507e-01
 -2.3662272e-01
 -2.6394573e-01
 -1.6638690e-01
  4.9453476e-01
 -6.6270091e-02
  2.1196675e-01
 -1.4699666e-01
  8.4194666e-01
 -2.6822452e-02
 -1.5199900e-01
  1.7759442e+00
 -6.8659768e-02
  1.0118233e+00
  4.0209940e-01
  2.1688721e+00
  1.4244802e-01
  1.1494077e+00
 -2.8198985e-02
  1.1005508e+00
 -2.3140168e-01
  1.0171705e+00
 -2.8874812e+00
  2.7600354e-01
  9.0614058e-02
 -4.2603874e-01
 -1.3731431e+00
  1.7717500e-01
  1.5528882e+00
  8.0715694e+00
 -1.3303979e-01
 -4.3900621e-01
 -4.8146936e-01
 -2.7282453e+00
 -8.3444965e-01
  3.5119579e+00
 -7.9190630e-01
 -2.2469631e-01
 -2.8581606e-02
  1.8246495e+00
  3.4717554e-01
 -1.0907602e-01
  3.2751034e-03
 -1.1590897e-01
 -1.3212557e+00
  5.1565119e-03
 -2.5415227e-01
 -4.5041999e-01
  1.5102799e-01
 -1.1732979e-01
  2.1114516e+00
 -5.2524954e-01
 -3.2415345e+00
 -1.4927496e-01
 -1.6420333e+00
  9.4958045e-02
  5.3832203e-01
  2.6329899e-01
 -4.7827063e+00
 -5.3623807e-01
  7.9192407e-02
  3.9118013e-01
 -9.0837047e-02
 -1.5595095e-01
  1.4187756e-01
  4.3377134e-01
 -3.2875981e-02
 -1.5669208e+00
  4.4990486e-01
  1.1556779e+00
 -2.5477278e-01
  1.9325082e+00
 -4.1661568e+00
 -1.6445035e-02
 -1.6047025e+00
 -8.8270444e-01
  1.2662327e+00
  5.4641705e+00
 -5.7570195e-01
  1.0824076e+00
  2.4225736e+00
 -8.8978648e-01
 -5.4234982e-01
  1.4362936e+00
  1.6913252e+00
  5.7137197e-01
 -1.6199205e+00
 -6.8142049e-02
 -1.1523569e+00
  3.3251622e-01
 -6.8631736e-03
  1.2164795e+00
  3.8295504e-01
  4.7281468e-01
 -2.0199288e-01
 -4.9692395e-01
  6.1162013e-01
  2.2425085e-01
  5.1248336e-01
 -2.9047215e-01
  2.1498544e+00
 -1.4166644e+00
 -8.0180144e-01
  6.3480210e-01
 -1.2458352e+00
 -1.4348572e-01
 -3.6937392e-01
  9.8009819e-01
  3.4594488e-01
 -1.8504012e+00
  5.1950222e-01
  8.8934615e-02
 -2.1054146e+00
 -1.6331938e-01
  4.6233784e-02
 -9.2650056e-01
 -8.7316573e-01
 -3.6717558e-01
  4.9949178e-01
 -6.2614101e-01
  6.5862358e-02
 -1.0219462e+00
  3.5473216e+00
 -2.6111236e-01
  3.8311861e+00
  1.3560966e-01
 -2.3853499e-01
  1.6557136e-01
 -4.7198769e-01
 -2.5566392e+00
  2.6197276e-01
  8.0948216e-01
  9.6500033e-01
 -8.2877648e-01
 -3.1030428e+00
  3.7132034e-01
  4.5564306e-01
  3.6753261e-01
 -1.3294078e+00
  1.5548921e+00
  1.1481751e-01
 -7.9478180e-01
 -2.1949666e+00
 -8.6814678e-01
 -6.4739531e-01
  6.5158904e-01
  6.4048815e-01
 -5.0409883e-01
 -2.2214518e+00
  1.1813415e+00
  1.0984939e-01
 -2.7561269e+00
  6.3490175e-02
  8.4227258e-01
  1.0778073e-01
  1.1354930e+00
  5.9902538e-02
 -8.8153265e-02
  1.0139554e+00
 -7.7458197e-01
  3.6853675e-02
  1.0343280e+00
 -3.7337193e+00
  7.0034266e-01
  7.1657461e-01
 -1.0869853e-01
  5.2036864e-01
 -5.1361680e-01
 -1.2836885e+00
 -1.4757673e+00
  4.9513534e-02
 -2.4751758e-02
 -3.9419279e-01
 -1.0915747e+00
 -6.5723568e-01
 -4.6246400e-01
 -7.1365580e-02
  2.7093989e-01
  4.1530836e-02
 -1.3383302e-01
 -3.4741974e-01
  4.7946036e-01
  1.7870886e+00
  4.5780414e-01
  3.2295164e-01
 -2.1780315e-01
  1.1439328e+00
 -1.6012174e+00
 -4.0153530e-01
 -2.4997923e+00
 -5.8207744e-01
 -7.2931312e-02
 -7.3902649e-01
 -1.8339860e-01
 -5.1557280e-02
  6.2164617e-01
  1.1237235e+00
  1.0486453e+00
 -1.0575505e+00
  9.3047321e-01
 -1.5180852e-03
  7.0256156e-01
 -1.5055890e-01
  5.9645075e-01
  3.4367979e-01
  2.9873267e-01
 -2.1001520e+00
 -9.7874099e-01
  1.6293373e-02
  1.2630502e+00
  2.3368595e+00
  7.2698385e-02
  2.2800279e-01
 -1.7645380e+00
 -1.7626934e-01
 -6.3844822e-02
 -8.2312096e-03
  1.9071004e-01
  5.7672870e-01
  9.1529471e-01
  2.1036647e-01
 -1.9918002e-01
  3.1986421e-01
 -4.6954864e-01
 -1.0433660e+00
  1.0591960e-01
  1.0034801e+00
  5.1480627e-01
  2.0308576e+00
 -1.5544262e+00
  1.1826562e+00
 -2.2922395e-01
  1.2832563e-02
  4.4476804e-01
 -2.6031349e-02
  5.2583002e-02
 -7.0212781e-01
 -8.0043697e-01
 -2.1480969e-01
  1.3536339e-01
 -3.1734397e+00
 -7.8449667e-01
 -5.0624835e-01
  7.9193637e-02
 -3.6220598e-01
  1.3869029e+00
 -1.5926859e-01
  8.9845061e-01
 -1.1980769e-04
 -1.6290314e+00
  7.8402616e-02
 -1.5001248e+00
  1.8968402e-01
  1.4493815e+00
 -3.6037767e+00
 -1.6676213e+00
  1.7433723e+00
  7.3406941e-01
  2.5813415e+00
  1.2120681e-01
 -7.0968218e-02
 -4.0371564e-01
  7.2136635e-01
  1.3508402e+00
 -2.0660217e+00
  1.8113260e+00
  4.9858043e-01
 -7.4459583e-01
  1.5662841e-01
  9.3973523e-01
 -3.6212173e+00
  2.5480907e+00
 -3.0913839e+00
  1.0707201e+00
  1.7521005e-02
 -1.4386371e+00
  1.9650348e-01
  1.6387054e+00
  5.2410871e-01
 -5.4229087e-01
 -1.0084531e+00
 -8.3088714e-01
 -2.0480676e+00
  9.9136674e-01
 -8.8951564e-01
  3.9389545e-01
 -8.5527468e-01
 -1.3895042e+00
  1.0466051e+00
 -9.4490027e-01
  1.2580361e+00
  7.7113783e-01
  8.8181667e-02
 -5.2186120e-01
 -5.4866992e-02
  3.8168094e-01
 -6.8909907e-01
  7.9963970e-01
  1.5198046e-01
 -8.9113957e-01
 -3.2874757e-01
  6.4429060e-02
 -1.7107245e-01
 -3.4703624e-01
 -8.2346249e-01
  1.3793595e+00
  1.5994176e+00
  1.8685514e-01
 -1.4542995e-01
  2.8869483e-01
  1.5184706e+00
  9.6114713e-01
 -1.8528819e-01
  6.4710462e-01
  3.7075868e+00
  2.2658682e+00
  5.5937189e-01
  1.8353182e+00
  8.9593500e-02
  3.2744613e-01
  3.4203795e-01
 -5.4553995e+00
  1.2703557e+00
 -1.6982813e+00
  4.4301108e-02
 -1.6184545e-01
  3.5968325e-01
  1.6173545e-01
 -1.1845950e+00
  2.5698185e+00
 -1.1290771e+00
  1.7143739e-02
  8.1235307e-01
  7.9219013e-01
  4.0437412e-01
 -1.8720044e+00
 -3.7517059e-01
 -1.5615138e+00
  2.0323083e-01
  1.2798036e+00
 -7.2706020e-01
 -7.5844043e-01
 -5.9555089e-01
  1.4297916e-01
  3.7516141e-01
  8.0123216e-01
 -8.7896198e-01
  3.8552213e+00
  1.7195601e+00
  4.8447865e-01
  1.8001527e+00
 -4.3449149e-01
  1.0761420e+00
  4.6658731e-01
  7.1671396e-02
 -3.8733375e-01
 -2.5755634e+00
  6.9502670e-01
 -7.0435390e-02
 -2.7064672e-01
 -4.9571311e-01
 -1.5008950e-01
  1.1848533e-01
  3.9306453e-01
  5.2396673e-01
 -1.4739515e+00
  1.2701728e+00
 -1.1291040e+00
  6.8095654e-01
 -1.1273127e-01
 -1.1389394e+00
 -5.2801210e-01
 -1.6681862e+00
 -1.3628068e+00
  1.7172316e+00
  1.1891016e+00
  2.6034677e-01
  2.5441047e-02
  1.7060581e-01
 -1.2143242e-01
  4.3653193e-01
 -3.1142211e-01
  7.0394552e-01
  2.1405789e-01
 -9.6918300e-02
 -2.5047031e-01
  1.3128538e-01
  1.5227871e+00
  1.2623770e+00
 -3.0297297e-01
 -4.7781017e-01
  1.9834323e-01
 -2.6293597e-01
 -1.9736882e-01
 -4.7727714e+00
 -4.7187328e-02
 -4.9679462e-02
 -1.5742998e+00
 -4.3498099e-02
 -2.6257941e-01
  9.8399240e-01
  3.7281197e-01
  1.4374803e+00
  6.7965120e-01
 -1.0808453e-01
 -5.1941931e-01
 -1.6111549e+00
  6.4247561e-01
 -1.2103434e+00
  7.5007135e-01
  1.3808134e-01
 -5.6467496e-02
  5.1276919e-02
  4.0373138e-01
 -1.7208904e-01
 -1.6188719e+00
  6.7563713e-01
 -3.0722618e-01
 -2.2346006e-01
 -2.7046672e-01
 -3.8875117e+00
 -1.2643689e-01
 -3.4560530e+00
 -7.0150143e-01
  4.5776791e-03
 -2.1446340e-01
  4.7979889e+00
 -9.4931670e-02
  5.8026910e-01
  6.9080693e-01
 -2.7267605e-02
  1.3710791e+00
  5.8949083e-01
 -3.5745685e-03
 -2.1993914e+00
 -2.5339219e-01
  4.7316846e-01
 -7.0773311e-02
 -2.2015795e-01
  2.0249112e-01
  4.6844336e-01
  1.0889678e-01
 -7.1546994e-02
 -1.0237779e-01
  7.7011466e-01
  5.5437416e-01
  7.3000699e-02
  5.3067656e+00
  6.6817321e-02
  3.1446423e-02
 -3.6965114e-01
 -1.0453110e+00
  1.4419603e-01
  3.9956045e-01
 -2.8696674e-01
 -2.3665367e-01
  2.1754809e-02
 -8.0698001e-01
 -6.6972393e-01
  6.7682844e-01
  2.0634581e-01
 -1.8234354e-01
 -4.0075250e+00
 -6.5199405e-01
 -2.0539422e-01
 -8.3491184e-02
  3.1125826e-01
  6.9240224e-01
  6.0332097e-02
 -7.8157283e-02
  9.0868458e-02
  1.0889174e-01
  1.8997401e-01
 -1.8706823e-02
 -3.5485226e-01
  1.3050292e+00
  1.1601785e+00
 -3.1651986e-01
 -6.1367620e-02
  2.1624383e-01
  3.2852313e-01
  2.6786828e+00
 -1.6174619e+00
 -4.6201733e-01
 -9.8187067e-02
 -4.1956800e-01
  1.2310381e+00
 -2.0159867e+00
 -5.9843248e-01
 -1.1963044e+00
  3.7303782e-01
 -7.7471578e-01
 -4.8131925e-01
  2.4623308e-01
  6.2158602e-01
 -8.4381185e-02
 -6.0473037e-01
 -1.1908504e+00
  8.0623217e-02
  1.7973469e+00
 -1.3077165e+00
  3.5293332e-01
 -2.3002405e-01
  2.4490711e-01
  8.8234210e-01
 -1.9784396e+00
 -2.3482196e+00
 -1.7405676e+00
  9.9496007e-01
  7.7924418e-01
 -7.4878103e-01
 -1.1748959e+00
 -2.0460485e-01
 -5.1416135e-01
 -9.7745039e-02
 -3.0721888e-02
 -6.8790674e-01
  1.2244680e+00
  1.4898590e+00
 -4.1659359e-02
  4.7226883e-02
  2.5013590e-01
  1.9300623e-02
 -9.1103099e-02
 -5.8187984e-02
  2.6882979e-01
 -1.4140050e+00
 -1.2383584e-01
  7.4416870e-01
 -3.4166095e+00
  4.8117481e-02
 -1.0249225e-02
  1.6439368e+00
 -9.6291286e-01
  5.9504294e-01
  1.9117795e+00
 -2.4893302e-01
  2.1833831e-01
  2.2927439e+00
 -3.8791680e-01
 -1.9485625e+00
  9.3526669e-02
  5.8594689e-02
 -2.0899141e-01
  3.5612190e-01
  2.9291034e-01
  1.1690693e-01
 -1.6351903e-02
 -1.9589229e-01
  4.1219729e-01
 -3.9865634e-01
  4.9161667e-01
 -1.0268526e+00
  1.8636656e+00
  1.8370357e-01
  2.3652139e-01
 -2.4968931e-01
 -5.9330744e-01
  1.0863528e-01
  3.9555162e-01
 -1.8044597e-01
  5.7635981e-01
  1.8003753e-01
  2.2969328e-02
  5.5537623e-01
 -1.0239557e+00
  5.9614331e-01
  4.2151552e-02
 -2.4363082e-02
  2.1886005e+00
 -1.3268242e+00
  3.0745840e-01
  1.0191693e-01
  3.3242397e-02
  3.7206936e-01
  6.6200757e-01
  1.6682755e+00
  3.3185279e-01
 -1.3077499e+00
  4.3361738e-01
 -3.0420017e-01
 -9.2106813e-01
 -7.4250877e-01
  8.4489219e-02
  4.8377901e-01
  1.7960969e-01
  4.1894659e-01
  3.0622045e-02
  3.2456455e-01
  2.0856721e+00
  6.8579358e-01
  4.2847089e-02
  3.0193081e-01
 -2.6928084e+00
 -3.1990236e-01
 -1.8307835e-01
  6.6876674e-01
  1.4518912e-01
  2.8994516e-01
  8.1108648e-01
 -5.2814806e-01
 -1.4644742e-01
  1.1275858e+00
 -1.6459910e+00
  2.5393021e-01
  3.5637152e-01
  1.7972097e-01
  2.6930222e-01
 -3.8364300e-01
 -1.4436395e-01
 -8.8012284e-01
 -6.7142671e-01
  1.3445687e-01
  1.6121821e-01
 -1.7782224e-02
 -2.0330526e-01
 -3.7476614e-01
 -1.3170891e-01
  3.3639762e-01
 -3.1493716e-02
  9.3839407e-01
  4.5543704e-02
 -3.4220293e-01
 -5.9323754e-02
 -5.7550162e-01
 -4.9765387e-01
 -2.5696841e-01
  5.6547817e-02
  7.0096046e-02
  2.7885914e+00
  2.8446144e-01
  2.6364346e+00
  1.9713339e-01
 -4.6887982e-01
  2.0089495e-01
  6.1275788e-02
 -4.1525829e-01
  8.2384728e-02
  5.4525691e-01
  5.6911951e-01
  1.6774878e-01
 -2.5694119e-02
  9.4032563e-02
  5.2395773e-01
 -7.1839166e-01
 -1.9875817e-01
 -1.2880935e-01
 -9.7847986e-01
  1.6123046e-01
  7.8661120e-01
 -3.1585641e-02
 -6.0531729e-01
 -1.6462377e+00
  7.4635398e-01
 -1.9686410e+00
  1.5193520e+00
  1.8766972e+00
 -2.3028651e-01
  1.2889926e+00
 -4.5891185e+00
  8.0023146e-01
  1.9865561e+00
  1.8387350e-01
  7.6930396e-02
 -4.8980102e-01
 -1.3316341e-01
  3.4935789e+00
 -1.4492305e-02
  1.4948031e+00
 -2.6947016e-01
 -2.1466182e-01
  9.5567107e-02
  8.5035211e-01
  1.7034123e+00
 -8.4159344e-01
 -8.9671159e-01
  3.4627563e-01
  6.4349136e+00
  4.7095519e-01
 -4.4839069e-01
 -1.4543701e+00
  7.0972466e-01
  3.1384054e-01
 -4.0361467e-01
 -6.7286211e-01
 -2.8023663e-01
 -5.8150548e-01
  2.2640659e-02
  1.3733568e+00
 -7.4765891e-02
  1.9271839e-01
  4.0432414e-01
  4.0401229e-01
 -8.1164622e-01
 -5.2793849e-01
  1.2785745e+00
  1.0980096e-01
  1.6578676e+00
 -2.9057309e-01
 -4.3748620e-01
 -8.8665083e-02
  1.3780715e+00
 -1.7498882e-01
 -9.0693933e-01
 -5.7659352e-01
  5.2775718e-02
  9.4871497e-01
 -3.7816353e-02
 -6.1996061e-02
  1.1604593e+00
 -2.0969675e+00
 -1.7327634e+00
 -2.3864605e+00
  2.6547834e-01
 -1.5760901e+00
  8.2156038e-01
 -2.8766799e-01
  2.1917616e-01
  4.7008729e-01
  1.0215823e-01
  2.5859648e-01
 -7.8128839e-01
  5.7000232e-01
 -2.9117692e-02
 -3.1355852e-01
 -1.7855889e+00
  3.3757672e-01
  9.1142780e-01
 -5.4650134e-01
 -1.4511263e+00
  5.1731724e-01
 -2.0187526e+00
 -1.1716402e+00
 -1.2317868e+00
 -1.7664786e-01
  2.7001795e-01
  1.4299738e-01
 -8.9388378e-02
 -5.0841635e-01
  8.3696425e-01
 -1.3269448e+00
  1.0439088e-01
  1.1483933e+00
  5.7145220e-01
  2.4168217e-01
  1.2991298e+00
  1.0779489e+00
  2.9945844e-01
 -2.0332778e-01
  6.7351472e-01
 -9.2131513e-01
 -3.3131856e-01
  1.3009274e+00
  6.5543783e-01
  3.0813482e-02
  1.4178842e-01
  2.4517754e-01
  6.8948023e-02
  2.8735024e-01
  3.1753886e-01
  1.1972784e+00
  2.1955274e-01
  2.2258095e-02
  8.0208808e-02
  1.9141465e-01
 -1.5774304e+00
  3.6006904e-01
  1.4944559e-01
  1.9221853e-01
 -1.6611804e-01
 -2.0177285e-01
 -9.4481725e-01
  2.4720013e+00
  2.4546632e-01
 -3.6258349e-01
  3.2986796e-01
  9.2334753e-01
 -9.0923393e-01
  4.7570986e-01
  4.5754698e-01
  2.1116351e-01
 -1.1136242e-01
  6.6721544e-02
 -1.7462375e-02
  1.0657056e-01
  1.1858864e-01
 -1.0468686e-01
  2.1966837e-02
 -6.3048375e-01
  9.2209108e-02
  2.5885582e-01
 -3.5040759e-02
  2.1613871e-01
  3.2398015e-01
  2.8262207e-01
 -4.1010621e-01
  1.7389403e-01
  3.9393483e-03
 -3.3400485e-01
  2.6533524e-02
  1.3851848e-01
  2.2912876e-01
  6.2836297e-02
 -1.0491931e+00
 -5.9011549e-02
  4.7740084e-01
 -6.8779862e-03
  4.0243214e-01
  2.1574427e-01
  2.2417873e-01
  2.4783793e-01
  1.6047999e-02
 -2.7461715e-02
 -7.4494177e-01
  9.4129957e-02
 -4.2145813e-01
 -1.8256952e-01
  1.3957505e+00
  5.7478964e-01
  2.0443763e-01
  7.2246999e-01
  5.5053574e-01
 -5.2351385e-01
 -5.7270646e-01
 -2.3046741e-02
  2.1278419e-01
  1.1073522e-01
  5.1498613e+00
  8.9404866e-02
 -1.8579403e+00
  1.8819791e-01
  2.1705225e+00
 -4.2104945e+00
 -9.4166595e-01
 -3.9123309e-01
 -2.4908827e-01
 -5.4736674e-01
 -8.6604051e-02
 -2.1592100e-01
 -4.5055243e-01
  1.1462952e-02
 -9.2176378e-01
 -5.1147777e-01
  5.2310240e-02
  5.0716072e-01
 -7.6627105e-01
  4.1574385e-02
 -6.6253120e-01
  1.7629197e-01
 -2.2382462e-01
  6.7597486e-02
  1.3604900e+00
  3.9637480e-02
 -4.1614002e-01
 -3.4596741e-02
  2.3172722e+00
  2.5317383e+00
  3.0252668e-01
 -1.8452263e-03
  1.9242408e+00
 -2.5179315e-01
 -1.6426970e-01
  2.7903214e-01
  6.7158502e-01
  2.5325437e+00
 -2.4631143e+00
  3.7923527e+00
 -2.8656021e-01
  5.0175124e-01
 -4.0723875e-01
  1.5364764e+00
 -3.7518214e-02
 -2.6351193e-01
 -9.6552134e-01
 -1.7688627e+00
  4.3998193e-03
  3.6685872e-01
 -3.3882067e-01
 -9.0954572e-01
  5.9668505e-01
  1.3394954e+00
 -9.8897082e-01
  2.7566142e+00
  2.4581563e+00
 -1.6115975e-01
  1.3200872e-03
  8.1990671e-01
 -2.8739446e-01
 -4.1163310e-01
 -3.2002279e-01
 -6.3139397e-01
  1.5960156e+00
 -2.3364098e-01
 -1.1059304e+00
  4.3415575e+00
 -3.0532870e-02
  1.2220410e+00
 -2.5711150e+00
 -1.0041265e+00
 -1.2234448e-01
 -8.5046244e-01
 -8.0718577e-02
  1.1944913e+00
  3.4973547e+00
 -1.0204016e+00
 -3.4005877e-01
  1.2211468e+00
  8.2466435e-01
  3.8562197e-02
  8.8616121e-01
  6.5824397e-02
  1.1197340e+00
  1.4444134e+00
 -4.5359206e-01
  1.4612985e+00
  1.9729024e-01
  2.8968769e-01
 -4.8594552e-01
 -9.4619316e-01
  2.4308357e+00
  9.0269744e-01
 -1.0718480e+00
 -1.2462636e+00
 -2.3664134e+00
 -3.3974118e+00
 -1.0815603e-01
  2.0296361e-01
 -3.9318480e+00
 -6.2369901e-01
  1.4608259e-01
  3.7094206e-01
 -5.9233487e-02
  8.7625526e-02
 -1.4151056e+00
  2.7473986e-01
  3.4838530e-01
  1.5083030e-01
 -2.8280623e+00
  8.0356807e-02
 -7.8747433e-01
  1.6382866e-01
 -2.7794483e-01
 -1.2487647e-01
 -2.3302720e-01
  1.9217147e-02
  9.1154918e-02
 -8.7089479e-02
  1.8055719e-01
  7.0524283e-02
  2.0019120e-01
  8.5935429e-02
 -7.7869639e-02
 -3.0857235e-01
 -4.1095510e-01
  3.4879301e-02
  2.2611059e-01
 -1.3454136e-01
  1.8616009e-01
  1.2482438e+00
 -3.0186686e-01
  5.4955438e-02
 -4.1110581e-01
  3.3265400e-01
  2.8696358e-01
  3.9450452e-01
 -2.9932079e-01
  1.0187031e+00
  1.2302422e-01
  6.8819439e-01
  1.9078337e-03
 -1.6710828e-01
 -2.4554260e-02
  3.0676457e-01
  4.3655712e-02
  9.0883493e-01
  1.6092803e-02
  5.2314562e-01
 -2.8767431e-01
  4.9996704e-01
 -4.3016443e+00
 -3.5775489e-01
 -7.3697525e-01
  2.8923252e-01
  6.3462776e-01
 -1.2212650e-01
 -4.3269444e-01
 -7.4878883e-01
  2.8912535e-01
 -1.2894756e-01
 -3.7973419e-01
  1.0615612e-02
  2.4253000e-01
 -3.8571582e+00
  4.1428185e-01
 -2.1811949e-02
 -2.0792694e-01
  1.0925875e-01
 -6.3400972e-01
  6.0396409e-01
  3.6613110e-01
  1.7975703e-01
 -2.0224962e-01
 -4.0521830e-01
 -7.4084681e-01
 -2.4633765e-01
  1.9593339e-01
  2.3345193e-01
  1.9678510e+00
  3.7583736e-01
 -1.1667876e-01
  2.9980794e-01
 -6.3669220e-02
  1.1965376e-01
 -2.5323129e+00
  5.0728220e-01
  5.0503933e-01
  3.3350784e-02
  1.7903417e-01
  8.8732108e-02
  1.6477707e-01
 -6.8494284e-01
 -8.6639248e-02
  1.3403158e-01
  1.4056419e-01
  5.7612348e-01
  1.1622749e-01
 -8.8998199e-02
 -2.1548645e-01
  8.3239037e-01
 -7.7759546e-01
 -3.9274496e-01
 -2.3947892e-01
 -3.4865004e-01
  1.1819684e-01
  1.1125745e-01
 -9.9158904e-04
  7.6013073e-02
 -1.6820322e-01
 -8.8074648e-01
 -1.3099409e-02
 -3.1675417e-02
  5.7600665e-01
  2.6905516e-01
  1.3664730e+00
  6.9906950e-01
  4.2419562e-01
 -2.9235858e-01
 -3.6840495e-01
 -2.4952531e+00
 -7.4370448e-03
 -3.6200342e-01
  2.7855644e-01
 -3.5371576e-03
  2.6083365e-01
  1.1339169e-01
 -4.5578814e-01
 -1.9514496e-02
 -1.0282241e+00
 -1.4012796e-02
  7.6494294e-01
  5.9804362e-01
  3.0107901e+00
 -8.4966397e-01
  6.2171799e-01
  3.5412771e-01
  5.8810407e-01
 -1.9168894e+00
 -7.6351815e-01
 -1.8575711e+00
  8.0078864e-01
  1.3931474e-01
 -1.1216379e+00
 -1.7966743e-01
 -1.6963704e-01
  1.4611748e-01
  3.2648630e-02
  2.6475903e-01
 -3.1119421e-01
  8.9358807e-01
  6.2478006e-01
 -3.1134492e-01
 -1.2890523e-03
  4.8287970e-01
 -1.8528543e-01
 -4.8974437e-01
  1.2456958e-01
 -2.5683594e-01
 -1.6284778e+00
  3.2399157e-01
  2.5615582e+00
  1.5975180e-01
  1.9929230e-01
  1.3163166e+00
  4.5024389e-01
  6.3690519e-01
 -2.2672615e+00
 -1.9290546e+00
 -1.2303196e+00
  1.2600819e+00
 -4.5145538e-01
  2.6743183e-01
  1.9253831e-01
 -1.0039174e-01
  4.1000685e-01
 -3.4139624e-01
  1.5510026e+00
 -3.3401251e-01
  2.4331489e-01
 -1.1814328e+00
  3.0935752e-01
  6.2028825e-01
  3.3465860e+00
 -2.1633901e-01
  2.1109135e+00
  2.8577877e-02
 -1.5225430e-01
  2.2754285e-01
 -1.3904705e+00
 -1.0311780e+00
 -2.1838874e-01
  3.5495882e+00
 -3.9939039e+00
 -1.2754098e+00
 -1.1646371e+00
  5.0015774e-02
  3.6913344e-01
  1.5890762e-02
  1.8247055e-01
  1.4271826e-01
 -2.0671684e-01
  1.3055556e-01
 -5.1517278e-01
  4.0188860e-02
 -8.8848311e-01
  7.7577993e-02
  2.6707798e-01
 -1.7678876e-01
 -3.4275374e-01
  1.6614863e-01
  2.4191308e-01
 -7.8733361e-01
  2.0976667e-01
  2.2167380e-01
  3.4225766e-02
  6.0078585e-01
 -2.6091557e+00
 -1.4200047e-01
  1.1991035e-03
 -8.4778897e-02
  3.6440291e+00
 -2.3819892e+00
 -6.3053060e-01
 -5.2015924e-01
 -3.6876148e-01
  8.8832217e-01
 -7.6794970e-01
  1.0894337e-01
  1.4308378e-01
 -1.3156067e+00
 -1.4337215e-01
  3.0729449e-01
  1.1614634e-01
 -3.0528915e-01
  1.1043228e+00
 -4.0408313e-01
 -1.3098569e-01
 -1.6124522e-02
 -3.1956753e-01
  2.5275660e+00
  3.4989782e-02
 -3.6358586e-01
  2.3403051e-01
 -1.0752846e-01
  1.5068765e+00
  7.3635373e-03
  7.9309309e-01
  3.0086857e-01
 -8.2156259e-01
  1.1332794e+00
  1.2342039e+00
 -1.1035787e-01
 -8.6731809e-01
 -1.5246880e+00
 -1.0562124e+00
  1.8151562e+00
 -8.1587476e-01
 -1.4449748e+00
  4.1530581e+00
 -3.3601519e-01
  5.8766085e-01
 -2.7779794e+00
  1.4277147e+00
  5.4468977e-01
 -9.3833488e-01
 -8.1388406e-02
 -1.3992449e+00
 -2.5873468e-04
  4.0265620e-01
 -3.5708103e-01
 -1.0489722e-01
  4.0854579e-01
 -1.5915953e-01
  1.6549371e-01
 -1.2582526e+00
  3.1722561e-01
  5.9172422e-01
 -5.0280672e-01
  1.8247809e+00
 -1.5412217e+00
 -7.7939741e-02
  9.9442899e-02
  1.1798321e-01
 -1.9230963e-01
  2.8025267e-01
 -2.9195821e-01
  9.0770334e-02
  2.7643716e+00
  2.6275828e-01
 -3.4977883e-01
 -3.6541504e-01
  1.3061321e-01
  2.8075266e-01
  8.8011131e-02
  4.8456615e-01
  3.3596966e-01
  2.7770557e-02
  5.9178978e-01
  5.8611566e-01
  3.6055332e-01
 -2.0880542e+00
  1.5975397e+00
  2.0309927e+00
 -2.0821240e+00
 -1.2699764e+00
 -7.2881573e-01
 -1.3189534e+00
 -3.0362709e+00
  1.8111434e+00
 -4.4397104e-01
 -2.0840373e+00
 -6.3188188e-03
 -2.1980500e+00
  1.9859395e+00
  5.3189534e-01
 -2.6778471e+00
  8.8607025e-01
 -1.1367666e+00
 -3.9035994e-01
  1.6014361e+00
 -2.6938448e+00
 -3.5714540e-01
  3.1288434e-02
  5.8413094e-01
  1.1847987e-01
  1.9497105e-01
 -3.1590526e+00
 -9.5446981e-02
  2.3768260e+00
  4.5043251e-01
  7.8139372e-02
  2.5139606e+00
 -1.1539075e-01
 -2.4439009e-01
 -2.0332336e+00
  5.4679471e-01
 -1.3857526e-01
 -1.3857294e+00
  5.3470235e-02
 -3.4711789e-03
  4.3040933e-03
 -2.1536703e-01
  5.2255932e-02
  2.0086206e-01
  6.9795758e-01
  1.0754225e-01
 -1.9815123e+00
  4.6983343e-01
 -3.1436581e-02
  4.4623785e-02
  5.5600029e-01
 -4.4011374e+00
  5.2127671e-01
  2.4324745e-01
 -7.6678358e-02
 -1.6667362e+00
  1.5232722e+00
 -1.7275259e-01
 -7.2323012e-01
  1.0307828e+00
 -4.2627838e-02
 -1.8313488e-01
  1.2226932e-02
  3.4170294e-01
  1.4075270e+00
  3.7241488e+00
  9.5215923e-01
  9.7887737e-01
 -9.9007688e-02
  1.9693985e+00
  3.3941421e-01
 -1.3412068e+00
 -4.8751220e-01
  6.0569879e-02
 -1.0556598e+00
  4.7819901e+00
 -1.4888929e+00
  1.1733440e+00
  4.2112732e+00
  5.1394510e-01
 -1.4085087e+00
  7.9727030e-01
  2.0456656e-03
  6.1230862e-01
  4.1594289e-02
 -4.1574311e-01
 -1.4326447e+00
 -1.0613348e+00
  7.2826898e-01
 -1.5706352e+00
 -1.7970341e-01
  3.8772717e-01
  4.0786263e-01
  4.3243587e-01
  4.1460708e-01
  1.1889925e-01
  5.9094399e-01
  3.2869357e-01
 -2.5379458e-01
  1.0171248e+00
 -1.1149213e+00
  1.3261070e+00
  9.4256276e-01
 -1.1474953e+00
 -2.3631966e+00
 -7.9890704e-01
  5.6413788e-01
 -3.0147839e-02
 -3.6676199e+00
 -3.9335552e-01
  2.6223868e-02
  6.3731736e-01
 -1.8927437e+00
  7.0762229e-01
  5.5793387e-01
  5.7357281e-01
 -2.8646855e-02
  1.6703790e-01
  4.3015489e-01
  2.3662545e-01
 -9.8704852e-02
  8.0312747e-01
 -9.5073849e-02
  1.1035291e-01
 -4.8603389e-02
  1.1494223e-02
 -3.0638528e-01
 -6.8898302e-01
  6.5989649e-01
  1.4630867e+00
  4.5780796e-01
  4.6897727e-01
  3.3249786e+00
  3.5590224e-02
  1.8040513e-01
  8.4032327e-01
  1.5825154e-01
  5.6569610e-02
  4.5156822e-02
 -3.8140583e+00
  7.7916346e-02
 -4.2173646e-02
 -2.0311417e-02
  5.7006693e-03
  1.3030228e-01
 -1.6820908e+00
 -1.4280762e-02
  1.1601767e-01
 -9.4493705e-01
  3.4589174e-01
  3.7201185e-02
  6.8985194e-01
  1.3738966e+00
  5.2511394e-02
  3.6599281e-01
  2.1980724e-01
 -2.2536100e-01
  9.2984073e-02
  5.0431806e-01
 -4.5234699e-02
  9.4042206e-01
  7.9075313e-01
 -1.7562522e-01
 -4.8415324e-01
 -6.6690862e-01
 -4.1542196e-01
  1.4983245e-02
  3.4539001e+00
  1.6342925e-01
 -1.2590063e-03
  3.0151516e-01
  1.3098745e+00
 -1.7193545e-01
 -8.8164710e-02
  2.0449457e+00
 -7.2289230e-03
 -2.3948417e+00
  2.6595988e+00
 -9.7454256e-01
  2.9004934e-01
  1.7979069e+00
  1.8849256e+00
 -1.0055966e+00
 -1.1500847e+00
  6.9278307e-02
  1.7506340e+00
 -1.9451557e-01
 -6.5201694e-01
 -1.5157652e+00
  2.8155932e+00
 -2.7997880e+00
 -4.4789362e-01
 -5.9262872e-01
 -1.0817161e+00
 -4.0573385e-02
 -8.3861090e-02
  4.2081785e+00
  8.3201456e-01
  6.3702035e-01
 -9.6859759e-01
  1.3209303e-01
 -1.1118821e+00
 -1.3465143e+00
 -1.1537656e-02
 -1.5098095e-01
  3.3518091e-01
 -3.8847125e-01
 -1.3731468e-01
  7.6898545e-01
 -2.0380914e+00
  1.8485183e+00
 -1.9423741e+00
 -3.0721259e-01
  1.2086186e+00
  3.1862795e-02
 -1.4406716e+00
  8.0672812e-01
 -1.1906177e+00
  1.7195487e+00
 -1.6934302e+00
  2.5731820e-01
 -7.6263970e-01
 -5.7830685e-01
  2.6752578e-02
  1.9133510e-02
  3.2370546e-01
  5.7837081e-01
  6.2091547e-01
 -3.4979790e-01
  2.0341185e-01
 -4.8203313e-01
 -4.1236722e-01
 -1.1454531e-01
 -6.8808728e-01
  2.0648389e+00
  3.0550849e+00
 -2.4476774e+00
  1.6176882e-01
 -1.1017652e+00
  1.0432611e+00
 -1.0441060e-01
  1.5287068e-01
  1.3526726e-01
  1.7735558e+00
 -2.2675605e-01
 -4.7820086e+00
  9.5060980e-01
  3.0438840e-01
  2.4912402e-01
  4.5491552e-01
  1.0698423e+00
 -4.2777090e+00
  1.1621948e+00
  1.2560734e-01
 -2.3197811e+00
  3.3104038e-01
  1.7910523e+00
  1.3089724e+00
  2.1134813e-01
  1.1963497e-01
  1.5261316e+00
  1.8731854e+00
 -3.8549346e-01
 -3.5607433e+00
  4.8131880e-01
  1.2599474e+00
  1.9418281e+00
 -2.3898791e-01
  3.0457010e+00
 -5.6102113e-03
  1.5775374e+00
 -2.4519862e-01
  2.6476278e+00
 -1.0946116e+00
 -1.3332599e+00
 -1.0567487e-01
 -1.0156784e+00
 -2.7805415e-03
  2.8978858e+00
  3.0624268e+00
  2.8241134e-01
  3.4020081e-01
  5.0188583e-01
  4.6477279e-01
  3.6628491e-01
 -3.8972849e-01
  4.6740746e-01
  9.5380288e-01
  4.8008519e-01
 -1.1836814e-01
  4.9710909e-01
  6.9917925e-02
 -8.5754827e-02
  9.0321511e-01
 -4.9330902e-01
 -4.3963394e-01
  1.1805494e+00
 -3.1566107e-01
 -7.0267385e-01
 -6.9478798e-01
 -2.3167744e-02
  3.4073958e-01
 -1.2159481e-01
 -2.8761798e-01
 -2.3033485e-01
  7.7814466e-01
 -1.3087896e-01
  1.6838913e-01
 -1.0150864e+00
 -3.7294474e-01
 -3.4004921e-01
 -7.2530288e-01
 -2.3495588e+00
 -1.7848684e+00
 -6.2626392e-01
 -4.2101789e-01
 -1.4762799e+00
  1.3347541e-01
  3.1636283e-01
  8.3110374e-01
  7.5348258e-02
 -2.9598573e-01
 -5.8215952e-01
  1.3394775e+00
